#############################################################################
## Copyright (c) 1996, Carnegie Mellon University, Cambridge University,
## Ronald Rosenfeld and Philip Clarkson
## Version 3, Copyright (c) 2006, Carnegie Mellon University 
## Contributors includes Wen Xu, Ananlada Chotimongkol, 
## David Huggins-Daines, Arthur Chan and Alan Black 
#############################################################################
=============================================================================
===============  This file was produced by the CMU-Cambridge  ===============
===============     Statistical Language Modeling Toolkit     ===============
=============================================================================
This is a 3-gram language model, based on a vocabulary of 162 words,
  which begins "</s>", "<s>", "ALFA"...
This is an OPEN-vocabulary model (type 1)
  (OOVs were mapped to UNK, which is treated as any other vocabulary word)
Witten Bell discounting was applied.
This file is in the ARPA-standard format introduced by Doug Paul.

p(wd3|wd1,wd2)= if(trigram exists)           p_3(wd1,wd2,wd3)
                else if(bigram w1,w2 exists) bo_wt_2(w1,w2)*p(wd3|wd2)
                else                         p(wd3|w2)

p(wd2|wd1)= if(bigram exists) p_2(wd1,wd2)
            else              bo_wt_1(wd1)*p_1(wd2)

All probs and back-off weights (bo_wt) are given in log10 form.

Data formats:

Beginning of data mark: \data\
ngram 1=nr            # number of 1-grams
ngram 2=nr            # number of 2-grams
ngram 3=nr            # number of 3-grams

\1-grams:
p_1     wd_1 bo_wt_1
\2-grams:
p_2     wd_1 wd_2 bo_wt_2
\3-grams:
p_3     wd_1 wd_2 wd_3 

end of data mark: \end\

\data\
ngram 1=163
ngram 2=4964
ngram 3=24060

\1-grams:
-1.5110 <UNK> -1.3625
-0.8897 </s> -4.6553
-0.8897 <s> -1.9210
-2.1694 ALFA -0.8362
-1.8579 ALTERNATE -1.4174
-4.0487 AMPERSAND -0.4170
-3.1532 APOSTROPHE -0.3724
-4.0139 AT_SIGN -0.2906
-3.1967 BACKSLASH -0.3184
-3.8056 BACKTICK -0.2960
-2.7334 BACK_COMMAND -1.9139
-3.8341 BIN -0.5341
-2.5972 BRAVO -0.7198
-1.4002 BRAY -1.3754
-3.8268 CAPS_LOCK -0.2801
-4.2827 CHANGE_DIRECTORY -0.5859
-1.9907 CHARLIE -0.9432
-3.8196 CIRCUMFLEX -0.1431
-3.0786 CLOSE_COMMAND -1.9883
-3.1366 COLON -0.5297
-2.8521 COMMA -0.8513
-4.3262 COMPUTER -0.6706
-1.4646 CONTROL -1.4825
-4.9060 COPY_COMMAND -0.4841
-3.7129 CUT_COMMAND -0.8614
-4.9060 CYCLE_WINDOWS -0.7182
-2.5150 DASH -0.5321
-2.5904 DELETE -0.4056
-2.1843 DELTA -0.7808
-3.1656 DOLLAR_SIGN -0.3854
-1.2677 DOWN_ARROW -1.6718
-4.9060 EAST_ARROW -0.4638
-2.0695 ECHO -0.8968
-3.7789 EDITOR -0.3693
-2.8430 EIGHT -0.1781
-2.4036 END_KEY -0.7070
-1.5895 ENTER_KEY -2.0078
-2.9219 EQUALS -0.7456
-1.2949 ERASE -1.4118
-5.0029 ESCAPE_KEY -0.6390
-4.5258 ET_CETERA -0.3866
-3.7185 EXCLAMATION -0.3358
-4.7599 FIND_COMMAND -0.4434
-2.7744 FIVE -0.8685
-3.7299 FORWARD_COMMAND -1.8209
-2.6880 FOUR -0.5325
-2.6750 FOXTROT -0.8007
-5.0029 FUNCTION_KEY_1 -0.4172
-4.7599 FUNCTION_KEY_2 -0.3291
-4.4588 FUNCTION_KEY_3 -0.6655
-3.6965 FUNCTION_KEY_4 -1.1339
-5.1278 FUNCTION_KEY_5 -0.3380
-4.9060 FUNCTION_KEY_6 -0.3530
-5.1278 FUNCTION_KEY_7 -0.3380
-4.9060 FUNCTION_KEY_8 -0.2884
-5.1278 FUNCTION_KEY_9 -0.3224
-5.3039 FUNCTION_KEY_EIGHTEEN -0.4172
-5.3039 FUNCTION_KEY_ELEVEN -0.4172
-5.3039 FUNCTION_KEY_FIFTEEN -0.4172
-5.3039 FUNCTION_KEY_FOURTEEN -0.4172
-5.3039 FUNCTION_KEY_NINETEEN -0.4172
-5.3039 FUNCTION_KEY_SEVENTEEN -0.4172
-5.3039 FUNCTION_KEY_SIXTEEN -0.4172
-5.3039 FUNCTION_KEY_TEN -0.4172
-5.3039 FUNCTION_KEY_THIRTEEN -0.4172
-5.3039 FUNCTION_KEY_TWELVE -0.4172
-5.3039 FUNCTION_KEY_TWENTY -0.4172
-5.3039 FUNCTION_KEY_TWENTY_FOUR -0.4172
-5.3039 FUNCTION_KEY_TWENTY_ONE -0.4172
-5.3039 FUNCTION_KEY_TWENTY_THREE -0.4172
-5.3039 FUNCTION_KEY_TWENTY_TWO -0.4172
-2.7230 GINGER -0.4141
-3.3594 GREATER_THAN_SIGN -0.5607
-2.6309 HENRY -0.7165
-2.5049 HOME_KEY -0.7206
-4.3262 HYPER -0.6792
-2.3922 INDIA -0.9180
-3.8807 INSERT -0.2280
-3.2284 JULIET -0.4670
-2.8865 KEYBOARD -1.5533
-3.0838 KILO -0.8435
-5.0029 LAUNCH_TERMINAL -0.2816
-1.0306 LEFT_ARROW -1.8002
-3.7129 LEFT_BRACE -0.3007
-3.7073 LEFT_BRACKET -0.3412
-3.1547 LEFT_PARENS -0.3612
-3.6556 LESS -0.6282
-3.8415 LESS_THAN_SIGN -0.4818
-2.2735 LIMA -0.8704
-3.3545 LIST -0.6279
-4.7599 LOWER_WINDOW -0.4619
-2.4394 MICHAEL -0.8385
-4.4910 MOUSE -0.4218
-3.7789 NEW_COMMAND -1.4604
-3.9715 NEXT_COMMAND -1.1212
-2.6796 NINE -0.5609
-2.4463 NORTH_ARROW -1.3234
-2.2657 NOVEMBER -0.8085
-3.2606 NUMBER_SIGN -0.5878
-2.7046 ONE -0.5297
-4.8268 OPEN_COMMAND -0.5420
-2.2074 OSCAR -0.9997
-1.1951 PAGE_DOWN -1.9768
-1.5917 PAGE_UP -1.5708
-4.8268 PASTE_COMMAND -0.5411
-3.2685 PERCENT -0.5875
-2.4644 PERIOD -0.7264
-2.4834 PETER -0.9289
-3.3796 PLUS -0.3714
-4.3262 PREVIOUS_COMMAND -0.9612
-2.3995 QUEBEC -0.9855
-4.2625 QUESTION_MARK -0.4571
-3.0161 QUOTATION -0.6249
-5.1278 REDO_COMMAND -0.3360
-3.3570 REGULAR -1.4955
-2.0553 REPEAT_COMMAND -2.2036
-1.3112 RIGHT_ARROW -1.6140
-3.7661 RIGHT_BRACE -0.3655
-3.5879 RIGHT_BRACKET -0.3694
-3.1136 RIGHT_PARENS -0.6203
-2.1932 ROBBIE -0.9808
-2.6590 SAVE_COMMAND -1.8068
-3.1366 SEMICOLON -0.6319
-3.2470 SEVEN -0.6025
-2.2489 SHIFT -0.8516
-2.0183 SIERRA -0.8617
-3.0547 SIX -0.4483
-2.4359 SLASH -0.6756
-4.7019 SOUTH_ARROW -0.6390
-3.0511 STAR -0.4789
-3.9715 STOP -0.5784
-4.0487 SUPER -0.2927
-2.0606 TABULAR -1.1052
-2.2034 TANGO -0.7774
-4.7019 TAR -0.3034
-2.5875 THREE -0.6181
-3.6605 TWIDDLE -0.6972
-2.3906 TWO -0.7441
-2.8750 UNDERSCORE -0.4054
-2.5813 UNDO_COMMAND -1.3759
-2.6605 UNIFORM -0.7242
-1.3245 UP_ARROW -1.6344
-4.8268 U_S_R -0.4144
-3.1720 VERTICAL_BAR -0.5698
-2.8607 VICTOR -0.5292
-3.8646 VIEW -0.8630
-2.3725 VOICE -1.8171
-5.1278 WEST_ARROW -0.5421
-2.7357 WHISKEY -0.6148
-3.0172 WORK_SPACE_1 -2.0521
-2.8873 WORK_SPACE_2 -1.8049
-3.6459 WORK_SPACE_3 -1.9039
-3.2229 WORK_SPACE_4 -2.0204
-4.3039 WORK_SPACE_5 -1.2623
-3.3848 WORK_SPACE_6 -1.4531
-5.3039 WORK_SPACE_7 -0.4172
-3.8196 WORK_SPACE_8 -1.2668
-5.0029 WORK_SPACE_9 -0.4169
-3.1025 X-RAY -0.9601
-5.1278 X_ELEVEN -0.5421
-2.0229 YANKEE -0.9381
-2.9201 ZERO -0.6877
-2.8702 ZULU -0.5383

\2-grams:
-0.2472 <UNK> <UNK> -0.2698
-0.4349 <UNK> </s> 1.0532
-3.1937 <UNK> ALFA -0.3314
-3.0968 <UNK> ALTERNATE 0.2199
-4.0968 <UNK> BACKSLASH -0.2297
-3.7958 <UNK> BACK_COMMAND 1.2129
-3.6197 <UNK> BIN -0.1082
-3.6197 <UNK> BRAVO -0.2344
-2.4156 <UNK> BRAY -0.1655
-3.3978 <UNK> CHARLIE -0.0182
-3.1937 <UNK> COLON -0.8577
-2.8927 <UNK> COMMA -0.0836
-3.0554 <UNK> COMPUTER -0.2293
-2.5405 <UNK> CONTROL -0.1146
-3.7958 <UNK> CUT_COMMAND -0.1347
-3.1937 <UNK> DASH -0.4081
-3.3978 <UNK> DELETE -0.3079
-3.3187 <UNK> DELTA -0.3076
-3.6197 <UNK> DOWN_ARROW -0.2726
-2.9829 <UNK> ECHO -0.0775
-3.7958 <UNK> EDITOR -0.3507
-2.6654 <UNK> EIGHT -0.3263
-3.1426 <UNK> END_KEY -0.2273
-2.6054 <UNK> ENTER_KEY 0.7371
-3.2517 <UNK> EQUALS 0.0911
-2.0840 <UNK> ERASE -0.2087
-3.1937 <UNK> EXCLAMATION -0.3540
-3.4947 <UNK> FIVE 0.1636
-3.0176 <UNK> FOUR -0.1921
-3.4947 <UNK> GINGER -0.6888
-4.0968 <UNK> GREATER_THAN_SIGN -0.2967
-3.3978 <UNK> HOME_KEY 0.0472
-3.3978 <UNK> INDIA -0.1967
-3.7958 <UNK> JULIET -0.0915
-2.8664 <UNK> KEYBOARD 0.3354
-3.0554 <UNK> LEFT_ARROW 0.4879
-3.6197 <UNK> LEFT_PARENS -0.2438
-3.3187 <UNK> LESS -0.1879
-3.4947 <UNK> LESS_THAN_SIGN -0.4540
-3.1937 <UNK> LIMA -0.1680
-2.7746 <UNK> LIST -0.7738
-3.3978 <UNK> MICHAEL -0.0777
-3.4947 <UNK> NINE 0.2255
-3.7958 <UNK> NORTH_ARROW -0.1980
-3.7958 <UNK> NOVEMBER -0.2161
-2.6054 <UNK> ONE -0.5934
-3.3187 <UNK> OSCAR -0.3259
-2.9207 <UNK> PAGE_DOWN 0.5230
-3.3978 <UNK> PAGE_UP 0.5494
-3.6197 <UNK> PERCENT -0.3551
-3.3978 <UNK> PERIOD -0.0914
-3.1937 <UNK> PETER -0.3778
-3.7958 <UNK> QUEBEC 0.1544
-4.0968 <UNK> QUESTION_MARK -0.0280
-2.8927 <UNK> QUOTATION -0.4225
-2.7544 <UNK> REPEAT_COMMAND 0.8590
-3.6197 <UNK> RIGHT_ARROW 0.5570
-3.6197 <UNK> RIGHT_PARENS -0.0854
-4.0968 <UNK> ROBBIE -0.2929
-3.4947 <UNK> SAVE_COMMAND 0.8544
-3.7958 <UNK> SEMICOLON 0.0765
-3.7958 <UNK> SEVEN 0.0364
-3.1426 <UNK> SHIFT -0.1830
-3.1937 <UNK> SIERRA -0.4756
-4.0968 <UNK> SIX -0.2933
-3.2517 <UNK> SLASH -0.3375
-3.7958 <UNK> STAR -0.2641
-4.0968 <UNK> STOP -0.2762
-4.0968 <UNK> TABULAR -0.2979
-3.3978 <UNK> TANGO -0.2781
-3.1937 <UNK> THREE 0.0286
-2.6989 <UNK> TWO -0.2305
-3.7958 <UNK> UNDERSCORE -0.2331
-3.4947 <UNK> UNDO_COMMAND 0.3616
-3.1426 <UNK> UNIFORM -0.1798
-3.2517 <UNK> UP_ARROW 0.3074
-3.7958 <UNK> VIEW 0.2609
-3.3187 <UNK> VOICE -0.2774
-3.4947 <UNK> YANKEE -0.2934
-2.6344 <UNK> ZERO -0.7302
-3.7958 <UNK> ZULU -0.3657
-0.0000 </s> <s> 0.0000
-1.1348 <s> <UNK> -0.1055
-2.2074 <s> ALFA 0.3575
-1.1945 <s> ALTERNATE -0.1706
-3.9384 <s> AMPERSAND -0.5246
-2.7575 <s> APOSTROPHE -0.2294
-3.8135 <s> AT_SIGN -0.3397
-3.3016 <s> BACKSLASH -0.0856
-3.4155 <s> BACKTICK -0.2019
-1.8538 <s> BACK_COMMAND -0.2453
-3.1603 <s> BIN -0.1015
-2.5347 <s> BRAVO -0.2332
-1.4775 <s> BRAY 0.2128
-3.8135 <s> CAPS_LOCK -0.3401
-3.4613 <s> CHANGE_DIRECTORY -0.0765
-2.2572 <s> CHARLIE 0.0302
-3.6752 <s> CIRCUMFLEX -0.2248
-2.1994 <s> CLOSE_COMMAND 0.0091
-3.0933 <s> COLON -0.3946
-2.5552 <s> COMMA -0.1287
-3.9384 <s> COMPUTER -0.0185
-0.9490 <s> CONTROL 0.0488
-4.1145 <s> COPY_COMMAND -0.3310
-3.0176 <s> CUT_COMMAND -0.0298
-4.0176 <s> CYCLE_WINDOWS 0.0000
-2.4494 <s> DASH -0.0212
-2.2788 <s> DELETE 0.0144
-2.0595 <s> DELTA -0.2015
-2.9242 <s> DOLLAR_SIGN -0.4145
-1.6114 <s> DOWN_ARROW 0.3303
-4.2394 <s> EAST_ARROW -0.2341
-2.1277 <s> ECHO -0.0148
-3.2694 <s> EDITOR -0.0637
-2.6597 <s> EIGHT -0.1884
-1.8380 <s> END_KEY -0.2540
-1.0955 <s> ENTER_KEY -0.0079
-3.2852 <s> EQUALS -0.0453
-0.9865 <s> ERASE 0.3750
-4.1145 <s> ESCAPE_KEY 0.0000
-4.1145 <s> ET_CETERA -0.4851
-3.4378 <s> EXCLAMATION -0.5044
-4.0176 <s> FIND_COMMAND 0.0969
-3.1038 <s> FIVE 0.3380
-2.8415 <s> FORWARD_COMMAND 0.0000
-2.7975 <s> FOUR 0.1666
-2.7388 <s> FOXTROT -0.3412
-4.4155 <s> FUNCTION_KEY_1 -0.3010
-4.4155 <s> FUNCTION_KEY_2 -0.3900
-3.8715 <s> FUNCTION_KEY_3 -0.6726
-3.5704 <s> FUNCTION_KEY_4 -0.2830
-4.4155 <s> FUNCTION_KEY_5 -0.2553
-4.2394 <s> FUNCTION_KEY_6 -0.3979
-4.4155 <s> FUNCTION_KEY_7 -0.2553
-4.4155 <s> FUNCTION_KEY_8 -0.3680
-4.4155 <s> FUNCTION_KEY_9 -0.2553
-4.4155 <s> FUNCTION_KEY_EIGHTEEN 0.0000
-4.4155 <s> FUNCTION_KEY_ELEVEN 0.0000
-4.4155 <s> FUNCTION_KEY_FIFTEEN 0.0000
-4.4155 <s> FUNCTION_KEY_FOURTEEN 0.0000
-4.4155 <s> FUNCTION_KEY_NINETEEN 0.0000
-4.4155 <s> FUNCTION_KEY_SEVENTEEN 0.0000
-4.4155 <s> FUNCTION_KEY_SIXTEEN 0.0000
-4.4155 <s> FUNCTION_KEY_TEN 0.0000
-4.4155 <s> FUNCTION_KEY_THIRTEEN 0.0000
-4.4155 <s> FUNCTION_KEY_TWELVE 0.0000
-4.4155 <s> FUNCTION_KEY_TWENTY 0.0000
-4.4155 <s> FUNCTION_KEY_TWENTY_FOUR 0.0000
-4.4155 <s> FUNCTION_KEY_TWENTY_ONE 0.0000
-4.4155 <s> FUNCTION_KEY_TWENTY_THREE 0.0000
-4.4155 <s> FUNCTION_KEY_TWENTY_TWO 0.0000
-2.8715 <s> GINGER -0.0753
-3.6374 <s> GREATER_THAN_SIGN -0.2847
-2.8301 <s> HENRY -0.0580
-2.0761 <s> HOME_KEY -0.1415
-3.5704 <s> HYPER -0.0906
-2.5044 <s> INDIA 0.2920
-3.6026 <s> INSERT -0.4981
-3.2394 <s> JULIET -0.1583
-3.2394 <s> KEYBOARD 0.5428
-2.8358 <s> KILO -0.2439
-4.4155 <s> LAUNCH_TERMINAL -0.3310
-1.9890 <s> LEFT_ARROW 0.8164
-3.8135 <s> LEFT_BRACE -0.2472
-3.8715 <s> LEFT_BRACKET -0.3161
-2.8301 <s> LEFT_PARENS -0.4554
-2.9104 <s> LESS -0.2266
-3.7623 <s> LESS_THAN_SIGN -0.2016
-1.9858 <s> LIMA -0.4141
-2.7575 <s> LIST -0.0840
-4.0176 <s> LOWER_WINDOW -0.1461
-2.2128 <s> MICHAEL -0.0999
-3.8135 <s> MOUSE -0.1015
-2.8905 <s> NEW_COMMAND 0.0000
-3.1038 <s> NEXT_COMMAND 0.0193
-3.0176 <s> NINE 0.0610
-1.7504 <s> NORTH_ARROW 0.0021
-2.5643 <s> NOVEMBER -0.0404
-2.9172 <s> NUMBER_SIGN -0.1688
-2.3204 <s> ONE -0.2614
-4.2394 <s> OPEN_COMMAND -0.1761
-2.6831 <s> OSCAR 0.1349
-1.1183 <s> PAGE_DOWN 0.3580
-1.8157 <s> PAGE_UP 0.5265
-4.1145 <s> PASTE_COMMAND 0.1249
-3.4378 <s> PERCENT -0.6121
-2.2497 <s> PERIOD -0.0209
-2.3841 <s> PETER 0.0209
-2.8715 <s> PLUS -0.4606
-3.4613 <s> PREVIOUS_COMMAND 0.0212
-1.7411 <s> QUEBEC -0.0848
-3.8135 <s> QUESTION_MARK -0.0792
-2.5234 <s> QUOTATION -0.4356
-4.4155 <s> REDO_COMMAND -0.2553
-3.8135 <s> REGULAR 0.6580
-2.1713 <s> REPEAT_COMMAND 0.4663
-2.0892 <s> RIGHT_ARROW 0.5528
-3.7623 <s> RIGHT_BRACE -0.0958
-4.0176 <s> RIGHT_BRACKET -0.3602
-2.9762 <s> RIGHT_PARENS -0.3766
-2.4243 <s> ROBBIE -0.2286
-1.8273 <s> SAVE_COMMAND -0.1855
-3.5704 <s> SEMICOLON -0.0832
-3.2394 <s> SEVEN -0.0468
-2.0133 <s> SHIFT 0.1910
-2.3511 <s> SIERRA 0.1075
-2.8653 <s> SIX -0.1195
-2.0586 <s> SLASH -0.1229
-4.0176 <s> SOUTH_ARROW 0.1549
-2.8653 <s> STAR -0.0995
-3.2694 <s> STOP -0.2251
-3.6026 <s> SUPER -0.1265
-2.2836 <s> TABULAR -0.1024
-2.3821 <s> TANGO -0.0228
-4.0176 <s> TAR -0.1091
-3.1255 <s> THREE 0.0777
-3.2852 <s> TWIDDLE -0.2889
-2.5152 <s> TWO 0.0466
-2.9172 <s> UNDERSCORE -0.3300
-1.7481 <s> UNDO_COMMAND -0.1549
-2.7872 <s> UNIFORM 0.0357
-1.4608 <s> UP_ARROW 0.5878
-4.0176 <s> U_S_R -0.1919
-3.7166 <s> VERTICAL_BAR -0.2793
-2.6597 <s> VICTOR -0.4256
-3.6026 <s> VIEW 0.2818
-1.5031 <s> VOICE -0.1480
-4.4155 <s> WEST_ARROW 0.1249
-2.6674 <s> WHISKEY -0.0663
-2.1615 <s> WORK_SPACE_1 0.0324
-2.0039 <s> WORK_SPACE_2 0.0050
-2.7672 <s> WORK_SPACE_3 0.0095
-2.3567 <s> WORK_SPACE_4 0.0220
-3.4378 <s> WORK_SPACE_5 0.0212
-2.5044 <s> WORK_SPACE_6 0.0077
-4.4155 <s> WORK_SPACE_7 0.0000
-2.9762 <s> WORK_SPACE_8 0.0428
-4.2394 <s> WORK_SPACE_9 -0.3010
-3.6752 <s> X-RAY -0.2370
-4.4155 <s> X_ELEVEN 0.1249
-2.1603 <s> YANKEE -0.4006
-3.1484 <s> ZERO -0.1823
-2.8970 <s> ZULU -0.2006
-2.2698 ALFA <UNK> 0.2467
-0.7350 ALFA </s> 2.0034
-1.4636 ALFA ALFA -0.6326
-2.4917 ALFA ALTERNATE 0.1051
-3.1449 ALFA APOSTROPHE -0.4349
-3.1449 ALFA AT_SIGN -0.1636
-1.3777 ALFA BRAVO -0.1374
-1.5064 ALFA BRAY 0.0898
-3.4459 ALFA CAPS_LOCK -0.2907
-1.7216 ALFA CHARLIE -0.2325
-2.8439 ALFA COMMA 0.1520
-1.8549 ALFA CONTROL 0.0173
-2.2418 ALFA DASH -0.6381
-3.4459 ALFA DELETE -0.1982
-1.5767 ALFA DELTA -0.0825
-3.4459 ALFA DOWN_ARROW -0.3007
-1.8439 ALFA ECHO -0.1741
-2.3667 ALFA EIGHT -0.3769
-3.1449 ALFA END_KEY 0.1260
-1.9274 ALFA ENTER_KEY -0.3570
-2.9688 ALFA EQUALS -0.0050
-3.1449 ALFA ERASE -0.4729
-3.1449 ALFA FOUR -0.4761
-2.7469 ALFA FOXTROT -0.3207
-2.3320 ALFA GINGER -0.2729
-2.7469 ALFA HENRY -0.2120
-1.6264 ALFA INDIA -0.5814
-3.4459 ALFA JULIET -0.2947
-2.4045 ALFA KILO -0.3147
-2.9688 ALFA LEFT_ARROW 0.4849
-3.4459 ALFA LEFT_BRACKET -0.2702
-3.1449 ALFA LESS 0.1029
-3.4459 ALFA LESS_THAN_SIGN -0.2719
-1.3525 ALFA LIMA 0.1028
-1.6198 ALFA MICHAEL -0.2790
-2.4045 ALFA NINE -0.2488
-1.0937 ALFA NOVEMBER -0.1835
-2.6678 ALFA ONE -0.1763
-3.4459 ALFA OSCAR -0.2638
-3.4459 ALFA PAGE_DOWN -0.2920
-3.1449 ALFA PAGE_UP -0.3008
-1.7135 ALFA PERIOD -0.5614
-1.9144 ALFA PETER -0.2142
-2.8439 ALFA PLUS -0.4462
-2.9688 ALFA QUEBEC 0.0575
-2.9688 ALFA QUOTATION -0.0959
-3.4459 ALFA REPEAT_COMMAND -0.1975
-2.5428 ALFA RIGHT_ARROW 0.1998
-1.0585 ALFA ROBBIE -0.1461
-3.4459 ALFA SAVE_COMMAND 1.2524
-2.4045 ALFA SHIFT -0.3450
-1.4247 ALFA SIERRA -0.2148
-2.9688 ALFA SLASH -0.2562
-2.7469 ALFA STAR -0.1745
-1.4331 ALFA TABULAR -0.1277
-1.0343 ALFA TANGO -0.5063
-3.4459 ALFA THREE -0.3006
-2.7469 ALFA TWO -0.0917
-2.7469 ALFA UNDERSCORE -0.2238
-2.1237 ALFA UNIFORM -0.4296
-3.1449 ALFA UP_ARROW -0.2864
-1.7135 ALFA VICTOR -0.1347
-3.4459 ALFA VOICE -0.1115
-1.9144 ALFA WHISKEY -0.2120
-1.5268 ALFA YANKEE -0.3975
-2.3320 ALFA ZULU -0.4639
-2.4723 ALTERNATE <UNK> 0.5130
-1.8590 ALTERNATE </s> 2.8176
-2.9729 ALTERNATE ALFA -0.2655
-2.3708 ALTERNATE ALTERNATE -0.1125
-3.7510 ALTERNATE AT_SIGN -0.1929
-3.7510 ALTERNATE BACKSLASH -0.2770
-2.0268 ALTERNATE BRAVO -0.5632
-2.9729 ALTERNATE BRAY 0.1962
-1.1747 ALTERNATE CHARLIE -1.3459
-3.4500 ALTERNATE COMMA -0.4270
-2.6719 ALTERNATE CONTROL 0.0377
-3.1490 ALTERNATE DELETE -0.2621
-1.3070 ALTERNATE DELTA -0.2953
-3.7510 ALTERNATE DOWN_ARROW 0.4488
-2.9729 ALTERNATE ECHO -0.4043
-3.7510 ALTERNATE EDITOR -0.1746
-3.0521 ALTERNATE EIGHT -0.5257
-3.0521 ALTERNATE END_KEY 0.0271
-3.4500 ALTERNATE ENTER_KEY 0.6974
-0.2882 ALTERNATE ERASE -0.0724
-3.7510 ALTERNATE FIVE -0.2950
-3.7510 ALTERNATE FOUR -0.2925
-2.3197 ALTERNATE FOXTROT -0.3657
-2.6049 ALTERNATE GINGER -0.6597
-3.2739 ALTERNATE HENRY -0.2446
-3.4500 ALTERNATE HOME_KEY -0.0188
-3.4500 ALTERNATE INDIA -0.2522
-1.0350 ALTERNATE LEFT_ARROW 0.5371
-3.7510 ALTERNATE LEFT_PARENS -0.2930
-2.2887 ALTERNATE LIMA -0.6773
-2.7968 ALTERNATE LIST -0.2129
-3.7510 ALTERNATE PAGE_DOWN -0.3010
-1.5524 ALTERNATE PERCENT -0.2842
-3.7510 ALTERNATE PLUS -0.2968
-3.7510 ALTERNATE QUESTION_MARK -0.2863
-1.1166 ALTERNATE RIGHT_ARROW 0.1343
-3.4500 ALTERNATE ROBBIE -0.2395
-3.7510 ALTERNATE SEVEN 0.0328
-3.1490 ALTERNATE SHIFT -0.3454
-3.7510 ALTERNATE SIERRA -0.2853
-3.7510 ALTERNATE SLASH -0.2256
-3.7510 ALTERNATE STOP 0.0334
-1.6472 ALTERNATE TABULAR -1.1106
-3.4500 ALTERNATE TANGO -0.2626
-3.7510 ALTERNATE UNDERSCORE -0.2996
-2.0521 ALTERNATE UNIFORM -0.7536
-3.7510 ALTERNATE UP_ARROW 0.3396
-3.7510 ALTERNATE VIEW 0.2126
-2.0609 ALTERNATE WHISKEY -0.7977
-2.9729 ALTERNATE X-RAY -0.7146
-1.2070 ALTERNATE YANKEE -0.7479
-3.2739 ALTERNATE ZERO -0.3769
-0.8451 AMPERSAND </s> 3.8121
-1.6902 AMPERSAND BRAY -0.3010
-1.6902 AMPERSAND DELTA -0.2820
-1.3892 AMPERSAND DOWN_ARROW -0.3009
-1.6902 AMPERSAND EDITOR -0.2918
-0.6110 AMPERSAND ENTER_KEY 0.3325
-1.6902 AMPERSAND FUNCTION_KEY_4 0.5921
-1.6902 AMPERSAND GREATER_THAN_SIGN -0.2946
-1.6902 AMPERSAND LIST -0.0771
-1.3892 AMPERSAND ONE -0.0958
-1.0881 AMPERSAND SEVEN -0.6785
-1.3892 AMPERSAND STAR -0.4739
-1.6902 AMPERSAND UP_ARROW -0.3010
-2.5105 APOSTROPHE <UNK> 0.0615
-0.6593 APOSTROPHE </s> 2.8579
-2.5105 APOSTROPHE ALFA -0.2813
-2.5105 APOSTROPHE APOSTROPHE -0.1936
-2.5105 APOSTROPHE BACKSLASH -0.2966
-1.3345 APOSTROPHE BRAY 0.2437
-1.6654 APOSTROPHE COMMA -0.3712
-1.6654 APOSTROPHE CONTROL -0.1012
-2.2095 APOSTROPHE DASH -0.4339
-2.2095 APOSTROPHE DELETE -0.3773
-2.0334 APOSTROPHE DELTA -0.1256
-1.9085 APOSTROPHE DOLLAR_SIGN -0.3371
-1.8116 APOSTROPHE DOWN_ARROW 0.5450
-1.9085 APOSTROPHE ECHO -0.6936
-2.5105 APOSTROPHE END_KEY 0.0669
-0.9791 APOSTROPHE ENTER_KEY 0.3832
-2.5105 APOSTROPHE FOXTROT -0.2569
-2.5105 APOSTROPHE FUNCTION_KEY_4 0.5921
-2.5105 APOSTROPHE GREATER_THAN_SIGN -0.2989
-2.5105 APOSTROPHE HENRY -0.3006
-2.0334 APOSTROPHE HOME_KEY -0.2261
-1.9085 APOSTROPHE INDIA -0.3545
-1.5105 APOSTROPHE LEFT_ARROW 0.5140
-1.8116 APOSTROPHE LIMA -0.3677
-1.9085 APOSTROPHE MICHAEL -0.2284
-1.8116 APOSTROPHE NOVEMBER -0.7470
-2.2095 APOSTROPHE PAGE_DOWN -0.2311
-2.5105 APOSTROPHE PAGE_UP -0.3005
-2.5105 APOSTROPHE PETER -0.2577
-1.6075 APOSTROPHE QUOTATION -0.3961
-1.5105 APOSTROPHE RIGHT_ARROW 0.1275
-2.5105 APOSTROPHE RIGHT_PARENS -0.1748
-2.0334 APOSTROPHE ROBBIE -0.5587
-2.0334 APOSTROPHE SHIFT -0.2918
-1.0334 APOSTROPHE SIERRA -0.5879
-1.1681 APOSTROPHE TANGO -0.4368
-2.5105 APOSTROPHE UNIFORM -0.2472
-2.2095 APOSTROPHE UP_ARROW -0.2790
-2.0334 APOSTROPHE VICTOR -0.5768
-2.5105 APOSTROPHE WHISKEY -0.3005
-2.5105 APOSTROPHE YANKEE -0.2833
-0.6569 AT_SIGN </s> 3.5691
-1.7709 AT_SIGN ALFA -0.2959
-1.7709 AT_SIGN CONTROL -0.2643
-1.7709 AT_SIGN DOWN_ARROW -0.3009
-1.2937 AT_SIGN ENTER_KEY 0.5724
-1.4698 AT_SIGN FOXTROT -0.2078
-1.7709 AT_SIGN FUNCTION_KEY_4 0.5921
-1.7709 AT_SIGN LIMA -0.2611
-1.2937 AT_SIGN NUMBER_SIGN -0.3075
-1.7709 AT_SIGN ONE -0.2975
-1.7709 AT_SIGN OPEN_COMMAND -0.2430
-1.7709 AT_SIGN OSCAR -0.2719
-1.7709 AT_SIGN PERCENT -0.2993
-1.7709 AT_SIGN SEVEN -0.2926
-1.7709 AT_SIGN SUPER -0.2837
-1.7709 AT_SIGN TABULAR -0.2991
-1.7709 AT_SIGN TWO -0.2995
-1.4698 AT_SIGN UP_ARROW -0.2895
-1.7709 AT_SIGN YANKEE -0.2995
-1.4698 AT_SIGN ZERO -0.2722
-2.4728 BACKSLASH <UNK> -0.3006
-1.5185 BACKSLASH </s> 3.7152
-2.4728 BACKSLASH ALTERNATE 0.0132
-1.9956 BACKSLASH APOSTROPHE -0.2251
-1.9956 BACKSLASH BACKSLASH -0.2708
-1.5185 BACKSLASH BRAVO -0.2730
-1.2686 BACKSLASH BRAY -0.4069
-2.1717 BACKSLASH CHARLIE -0.4621
-2.1717 BACKSLASH CIRCUMFLEX -0.2065
-2.4728 BACKSLASH COMMA -0.3003
-1.9956 BACKSLASH CONTROL -0.2671
-1.1940 BACKSLASH DASH -0.3789
-1.3936 BACKSLASH DELTA -0.3806
-1.7738 BACKSLASH DOLLAR_SIGN -0.5233
-1.7738 BACKSLASH DOWN_ARROW 0.4791
-2.4728 BACKSLASH ECHO -0.2984
-2.1717 BACKSLASH END_KEY 0.0682
-0.9413 BACKSLASH ENTER_KEY -0.3696
-2.4728 BACKSLASH FUNCTION_KEY_4 0.5921
-2.1717 BACKSLASH HOME_KEY -0.2687
-1.1940 BACKSLASH LEFT_ARROW 0.0224
-1.9956 BACKSLASH LEFT_BRACKET -0.2792
-2.4728 BACKSLASH LEFT_PARENS -0.2997
-0.8195 BACKSLASH NOVEMBER -0.5215
-1.9956 BACKSLASH ONE -0.3535
-2.1717 BACKSLASH PAGE_DOWN 0.4104
-2.4728 BACKSLASH PAGE_UP 0.4297
-1.9956 BACKSLASH PERIOD -0.3544
-2.4728 BACKSLASH PLUS -0.2968
-1.6946 BACKSLASH RIGHT_ARROW 0.2806
-1.8707 BACKSLASH RIGHT_BRACKET -0.2232
-2.4728 BACKSLASH ROBBIE -0.2679
-1.9956 BACKSLASH SHIFT -0.3783
-2.1717 BACKSLASH SIERRA -0.4768
-1.9956 BACKSLASH SLASH -0.2010
-1.9956 BACKSLASH TABULAR -0.1688
-1.5185 BACKSLASH TANGO -0.4000
-1.5185 BACKSLASH UP_ARROW 0.3265
-2.1717 BACKSLASH VERTICAL_BAR -0.2617
-1.8707 BACKSLASH WHISKEY -0.4749
-2.4728 BACKSLASH YANKEE -0.2799
-0.7730 BACKTICK </s> 3.5391
-1.1409 BACKTICK BRAY -0.2190
-1.9191 BACKTICK CHARLIE -0.2986
-1.4420 BACKTICK CONTROL -0.2440
-1.9191 BACKTICK DOWN_ARROW -0.2833
-1.6180 BACKTICK EIGHT -0.1464
-1.1409 BACKTICK ENTER_KEY 0.3294
-1.9191 BACKTICK INSERT -0.2956
-1.4420 BACKTICK LEFT_ARROW 0.6262
-1.9191 BACKTICK NOVEMBER -0.2524
-0.9648 BACKTICK ONE -0.3527
-1.4420 BACKTICK PETER -0.3476
-1.3170 BACKTICK RIGHT_ARROW 0.2751
-1.6180 BACKTICK SEMICOLON 0.0576
-1.9191 BACKTICK SLASH -0.2256
-1.9191 BACKTICK TABULAR -0.3005
-1.9191 BACKTICK TANGO -0.2048
-1.9191 BACKTICK TWIDDLE -0.2968
-1.6180 BACKTICK UP_ARROW 0.3497
-1.9191 BACKTICK YANKEE -0.2956
-2.8756 BACK_COMMAND <UNK> -0.3003
-0.0141 BACK_COMMAND </s> 1.8531
-2.1767 BACK_COMMAND BACK_COMMAND 1.0528
-2.5746 BACK_COMMAND CLOSE_COMMAND 1.1500
-2.3985 BACK_COMMAND PAGE_DOWN -0.5336
-2.8756 BACK_COMMAND PERCENT -0.2975
-2.1767 BACK_COMMAND REPEAT_COMMAND 0.0677
-1.5798 BIN <UNK> -0.1146
-0.3367 BIN </s> 3.1589
-1.2788 BIN BIN -0.0186
-1.8808 BIN EDITOR -0.2918
-1.8808 BIN ERASE -0.2430
-1.5798 BIN FIVE 0.0306
-1.8808 BIN HYPER -0.2817
-1.4037 BIN LESS 0.0484
-1.8808 BIN LIST -0.0771
-1.8808 BIN NEXT_COMMAND 0.4586
-1.5798 BIN ONE -0.1224
-1.8808 BIN PERCENT -0.0540
-1.8808 BIN SHIFT -0.2706
-1.8808 BIN THREE 0.1467
-1.8808 BIN TWO -0.0140
-1.8808 BIN UNDO_COMMAND 0.5267
-1.8808 BIN VOICE -0.2638
-2.7275 BRAVO <UNK> -0.1017
-1.0648 BRAVO </s> 2.7467
-1.0242 BRAVO ALFA -0.2519
-2.5514 BRAVO ALTERNATE -0.0752
-3.0286 BRAVO BACKSLASH -0.2996
-0.6448 BRAVO BRAVO -0.7255
-1.3296 BRAVO BRAY -0.5060
-1.6484 BRAVO CHARLIE -0.7197
-3.0286 BRAVO COLON -0.2156
-2.7275 BRAVO COMMA 0.0289
-2.0286 BRAVO CONTROL -0.3689
-3.0286 BRAVO DASH -0.2892
-3.0286 BRAVO DELETE -0.2991
-2.7275 BRAVO DELTA -0.3884
-2.1255 BRAVO DOWN_ARROW 0.4638
-1.5514 BRAVO ECHO -0.2537
-2.7275 BRAVO EIGHT -0.2970
-2.7275 BRAVO END_KEY 0.1108
-1.7064 BRAVO ENTER_KEY -0.1679
-2.1255 BRAVO FOXTROT -0.0722
-1.9146 BRAVO GINGER -0.4122
-3.0286 BRAVO HOME_KEY -0.1300
-1.1593 BRAVO INDIA -0.9237
-2.4265 BRAVO JULIET -0.2702
-2.1835 BRAVO LEFT_ARROW 0.6566
-3.0286 BRAVO LESS -0.2970
-1.6861 BRAVO LIMA -0.3786
-3.0286 BRAVO MICHAEL -0.2799
-2.0286 BRAVO NOVEMBER -0.3304
-3.0286 BRAVO ONE -0.2985
-1.3126 BRAVO OSCAR -0.5132
-3.0286 BRAVO PAGE_DOWN 0.4057
-3.0286 BRAVO PAGE_UP -0.2781
-2.4265 BRAVO PERIOD -0.2165
-2.1835 BRAVO PETER -0.4025
-2.4265 BRAVO RIGHT_ARROW 0.4982
-1.8525 BRAVO ROBBIE -0.6919
-2.5514 BRAVO SHIFT -0.2834
-1.2432 BRAVO SIERRA -0.7348
-1.8824 BRAVO SIX -1.1594
-3.0286 BRAVO SLASH -0.2993
-1.3951 BRAVO TABULAR -0.0763
-2.7275 BRAVO TANGO -0.4744
-3.0286 BRAVO UNDERSCORE -0.2778
-1.3851 BRAVO UNIFORM -0.4156
-3.0286 BRAVO UP_ARROW -0.2927
-2.3296 BRAVO WHISKEY -0.2243
-1.7498 BRAVO YANKEE -0.4879
-2.7275 BRAVO ZERO -0.2843
-3.0286 BRAVO ZULU -0.2906
-1.8914 BRAY <UNK> 0.3156
-0.6847 BRAY </s> 1.1924
-1.9899 BRAY ALFA -0.1070
-2.1282 BRAY ALTERNATE 0.4637
-3.6053 BRAY AMPERSAND -0.6620
-2.6511 BRAY APOSTROPHE 0.0992
-4.2074 BRAY AT_SIGN -0.2936
-2.8649 BRAY BACKSLASH -0.1614
-3.6053 BRAY BACKTICK -0.3240
-2.4831 BRAY BRAVO -0.3344
-0.3445 BRAY BRAY -0.6557
-3.7302 BRAY CAPS_LOCK -0.3074
-2.1543 BRAY CHARLIE -0.0073
-3.3043 BRAY COLON -0.3435
-3.3623 BRAY COMMA 0.3097
-1.4964 BRAY CONTROL -0.1699
-4.2074 BRAY CUT_COMMAND -0.1274
-1.7776 BRAY DASH -0.2723
-2.6276 BRAY DELETE 0.0572
-2.4914 BRAY DELTA -0.4241
-2.3153 BRAY DOLLAR_SIGN -0.2161
-1.9129 BRAY DOWN_ARROW 0.4514
-2.5261 BRAY ECHO -0.3468
-4.2074 BRAY EDITOR -0.2871
-2.6511 BRAY EIGHT -0.0683
-2.3685 BRAY END_KEY 0.3326
-1.5437 BRAY ENTER_KEY -0.6450
-2.4831 BRAY EQUALS -0.5311
-3.4292 BRAY ERASE -0.0363
-3.9063 BRAY EXCLAMATION -0.2348
-4.2074 BRAY FIND_COMMAND -0.0792
-3.3043 BRAY FIVE -0.3772
-2.7450 BRAY FOUR 0.0292
-2.5639 BRAY FOXTROT -0.0816
-4.2074 BRAY FUNCTION_KEY_4 -0.2960
-2.7450 BRAY GINGER -0.1821
-3.0313 BRAY GREATER_THAN_SIGN -0.5498
-2.7760 BRAY HENRY -0.1340
-2.4750 BRAY HOME_KEY 0.2639
-2.4831 BRAY INDIA -0.3016
-3.9063 BRAY INSERT -0.2121
-3.3623 BRAY JULIET -0.3490
-3.1282 BRAY KEYBOARD 0.8702
-3.9063 BRAY KILO -0.4017
-2.2206 BRAY LEFT_ARROW 0.5448
-2.7602 BRAY LEFT_BRACE -0.3415
-3.6053 BRAY LEFT_BRACKET -0.1955
-2.3749 BRAY LEFT_PARENS -0.2099
-3.0934 BRAY LESS_THAN_SIGN -0.2374
-2.2161 BRAY LIMA -0.1431
-2.4012 BRAY MICHAEL -0.3843
-2.8649 BRAY NINE 0.0242
-3.5084 BRAY NORTH_ARROW -0.5333
-2.2161 BRAY NOVEMBER -0.1844
-3.0313 BRAY NUMBER_SIGN -0.1214
-2.6759 BRAY ONE -0.0090
-2.2729 BRAY OSCAR -0.5616
-2.2074 BRAY PAGE_DOWN 1.0622
-2.3561 BRAY PAGE_UP 0.7191
-2.1660 BRAY PERIOD -0.4617
-2.2342 BRAY PETER -0.4541
-3.1282 BRAY PLUS 0.0226
-1.9718 BRAY QUEBEC -0.2118
-2.6053 BRAY QUOTATION 0.0431
-3.2531 BRAY REPEAT_COMMAND -0.0920
-2.4515 BRAY RIGHT_ARROW 0.5701
-3.6053 BRAY RIGHT_BRACKET -0.3290
-3.0934 BRAY RIGHT_PARENS 0.0253
-2.7160 BRAY ROBBIE -0.5047
-2.9521 BRAY SAVE_COMMAND 0.2746
-3.2531 BRAY SEMICOLON -0.0571
-3.3623 BRAY SEVEN -0.2740
-2.1903 BRAY SHIFT 0.0031
-1.9263 BRAY SIERRA 0.0069
-3.0612 BRAY SIX -0.3971
-2.2883 BRAY SLASH -0.2112
-2.5446 BRAY STAR -0.0660
-2.6511 BRAY TABULAR 0.2754
-1.7957 BRAY TANGO -0.4447
-2.6276 BRAY THREE -0.0731
-2.7302 BRAY TWIDDLE -1.1360
-2.9521 BRAY TWO 0.0434
-2.7022 BRAY UNDERSCORE -0.4814
-2.7924 BRAY UNIFORM -0.3839
-2.2074 BRAY UP_ARROW 0.9456
-2.5542 BRAY VERTICAL_BAR -0.4094
-2.7022 BRAY VICTOR -0.3482
-4.2074 BRAY VOICE -0.2255
-2.2831 BRAY WHISKEY -0.2429
-3.9063 BRAY WORK_SPACE_1 1.0726
-4.2074 BRAY WORK_SPACE_2 1.1437
-3.9063 BRAY WORK_SPACE_8 0.6301
-3.1660 BRAY YANKEE -0.5295
-3.2531 BRAY ZERO -0.2751
-3.4292 BRAY ZULU -0.2106
-1.1513 CAPS_LOCK </s> 3.8701
-1.4523 CAPS_LOCK ALFA -0.2429
-1.9294 CAPS_LOCK ALTERNATE -0.2989
-1.9294 CAPS_LOCK BACKTICK -0.2208
-1.9294 CAPS_LOCK BRAVO -0.2755
-1.6284 CAPS_LOCK BRAY -0.0356
-0.7533 CAPS_LOCK CAPS_LOCK -0.0270
-1.9294 CAPS_LOCK CHARLIE -0.2929
-1.6284 CAPS_LOCK CONTROL -0.4404
-1.9294 CAPS_LOCK ECHO -0.2849
-1.9294 CAPS_LOCK EIGHT -0.1687
-1.6284 CAPS_LOCK ENTER_KEY 0.6974
-1.9294 CAPS_LOCK LEFT_PARENS -0.2876
-1.9294 CAPS_LOCK OSCAR -0.2899
-1.9294 CAPS_LOCK PAGE_UP -0.2975
-1.6284 CAPS_LOCK QUEBEC -0.1421
-1.9294 CAPS_LOCK RIGHT_ARROW 0.4501
-1.6284 CAPS_LOCK ROBBIE -0.2767
-1.4523 CAPS_LOCK SHIFT -0.2158
-1.3274 CAPS_LOCK SIERRA -0.4375
-1.6284 CAPS_LOCK SLASH -0.2565
-1.9294 CAPS_LOCK STAR -0.2722
-1.6284 CAPS_LOCK TANGO -0.2403
-1.9294 CAPS_LOCK UP_ARROW -0.2977
-1.4523 CAPS_LOCK WHISKEY -0.3295
-0.3174 CHANGE_DIRECTORY </s> 3.5691
-1.4314 CHANGE_DIRECTORY DELTA -0.3005
-0.8293 CHANGE_DIRECTORY PERIOD -0.6727
-1.4314 CHANGE_DIRECTORY PLUS -0.2968
-1.4314 CHANGE_DIRECTORY QUEBEC -0.1169
-1.4314 CHANGE_DIRECTORY TWIDDLE 0.0544
-3.3210 CHARLIE <UNK> -0.1146
-0.7763 CHARLIE </s> 1.8689
-1.5538 CHARLIE ALFA -0.3945
-2.7769 CHARLIE ALTERNATE 0.1515
-3.6220 CHARLIE BACKSLASH -0.2981
-3.1449 CHARLIE BRAVO -0.1983
-1.9408 CHARLIE BRAY 0.0781
-3.3210 CHARLIE CHANGE_DIRECTORY -0.1919
-0.5268 CHARLIE CHARLIE -0.9356
-3.1449 CHARLIE COLON -0.1917
-1.4697 CHARLIE CONTROL -0.4738
-3.3210 CHARLIE DELETE -0.2817
-1.4949 CHARLIE DELTA -0.8699
-2.6220 CHARLIE DOWN_ARROW 0.6975
-1.5538 CHARLIE ECHO -0.1884
-3.3210 CHARLIE EIGHT -0.2784
-1.9786 CHARLIE END_KEY -0.2519
-1.4917 CHARLIE ENTER_KEY -0.9590
-3.3210 CHARLIE EQUALS -0.0924
-3.3210 CHARLIE ERASE -0.1849
-3.6220 CHARLIE FOUR -0.2740
-2.6220 CHARLIE FOXTROT -0.2798
-2.7769 CHARLIE GINGER -0.3087
-1.6308 CHARLIE HENRY -0.1442
-3.1449 CHARLIE HOME_KEY -0.5486
-2.2998 CHARLIE INDIA -0.3722
-3.6220 CHARLIE JULIET -0.2899
-2.2998 CHARLIE KILO -0.2444
-3.0199 CHARLIE LEFT_ARROW 0.5709
-3.3210 CHARLIE LEFT_BRACE -0.2838
-2.9230 CHARLIE LEFT_PARENS -0.4891
-3.0199 CHARLIE LESS 0.0462
-1.6264 CHARLIE LIMA -0.5594
-3.1449 CHARLIE LIST -0.0595
-1.7299 CHARLIE MICHAEL -0.9712
-3.6220 CHARLIE NINE -0.3001
-3.6220 CHARLIE NORTH_ARROW -0.2878
-2.7189 CHARLIE NOVEMBER -0.5118
-3.6220 CHARLIE NUMBER_SIGN -0.2148
-3.0199 CHARLIE ONE -0.2670
-1.2737 CHARLIE OSCAR -0.7589
-3.1449 CHARLIE PAGE_DOWN 0.8979
-3.6220 CHARLIE PAGE_UP -0.3009
-3.3210 CHARLIE PERIOD -0.2433
-1.7299 CHARLIE PETER -0.6015
-3.6220 CHARLIE PLUS -0.2859
-2.1306 CHARLIE QUEBEC -0.4652
-3.3210 CHARLIE QUOTATION -0.0595
-2.9230 CHARLIE REPEAT_COMMAND -0.3198
-3.6220 CHARLIE RIGHT_ARROW 0.4501
-3.3210 CHARLIE RIGHT_PARENS -0.1230
-2.2241 CHARLIE ROBBIE -0.1873
-3.6220 CHARLIE SEMICOLON 0.0545
-2.2418 CHARLIE SHIFT -0.4024
-2.2418 CHARLIE SIERRA -0.3184
-3.6220 CHARLIE SIX -0.2988
-2.7769 CHARLIE SLASH -0.1929
-3.3210 CHARLIE STAR -0.1764
-3.6220 CHARLIE SUPER -0.2747
-1.4517 CHARLIE TABULAR 0.0662
-1.9230 CHARLIE TANGO -0.0965
-3.6220 CHARLIE THREE -0.2829
-2.7769 CHARLIE TWO 0.0089
-3.1449 CHARLIE UNDERSCORE -0.2929
-2.2603 CHARLIE UNIFORM -0.4406
-1.1101 CHARLIE UP_ARROW 0.1222
-3.1449 CHARLIE VICTOR -0.3634
-3.6220 CHARLIE VOICE -0.1697
-2.7189 CHARLIE WHISKEY -0.2002
-3.3210 CHARLIE WORK_SPACE_2 0.9676
-3.6220 CHARLIE WORK_SPACE_5 1.0212
-2.5806 CHARLIE YANKEE 0.1757
-3.6220 CHARLIE ZERO -0.2860
-2.9230 CHARLIE ZULU -0.2746
-0.9638 CIRCUMFLEX </s> 3.6738
-1.9638 CIRCUMFLEX ALFA -0.2985
-1.6628 CIRCUMFLEX AMPERSAND -0.4590
-1.9638 CIRCUMFLEX BACKSLASH -0.2770
-1.6628 CIRCUMFLEX BRAY -0.2981
-1.9638 CIRCUMFLEX DOLLAR_SIGN -0.2915
-1.4867 CIRCUMFLEX DOWN_ARROW -0.2832
-1.9638 CIRCUMFLEX ECHO -0.2743
-1.9638 CIRCUMFLEX END_KEY -0.2828
-1.0607 CIRCUMFLEX ENTER_KEY 0.2203
-1.9638 CIRCUMFLEX EQUALS -0.3002
-1.9638 CIRCUMFLEX ERASE -0.0088
-1.9638 CIRCUMFLEX FUNCTION_KEY_4 0.5921
-1.9638 CIRCUMFLEX GREATER_THAN_SIGN -0.1894
-1.9638 CIRCUMFLEX LEFT_BRACKET -0.2792
-1.9638 CIRCUMFLEX LIMA -0.2611
-1.9638 CIRCUMFLEX NINE -0.2967
-1.9638 CIRCUMFLEX NUMBER_SIGN -0.2975
-1.9638 CIRCUMFLEX ONE -0.2990
-1.9638 CIRCUMFLEX PAGE_DOWN -0.2326
-1.6628 CIRCUMFLEX PAGE_UP -0.2779
-1.3617 CIRCUMFLEX RIGHT_ARROW 0.5446
-1.9638 CIRCUMFLEX RIGHT_BRACKET -0.2942
-1.9638 CIRCUMFLEX RIGHT_PARENS -0.2985
-1.4867 CIRCUMFLEX SHIFT -0.3864
-1.9638 CIRCUMFLEX SIX -0.2843
-1.9638 CIRCUMFLEX SLASH -0.2993
-1.9638 CIRCUMFLEX STAR -0.2653
-1.9638 CIRCUMFLEX UNDERSCORE -0.2944
-1.6628 CIRCUMFLEX UP_ARROW 0.3398
-1.3617 CIRCUMFLEX VERTICAL_BAR -0.3333
-0.0104 CLOSE_COMMAND </s> 2.1941
-1.9281 CLOSE_COMMAND CLOSE_COMMAND 1.4510
-2.5302 CLOSE_COMMAND REPEAT_COMMAND -0.2474
-0.7003 COLON </s> 2.8827
-2.2253 COLON APOSTROPHE -0.1309
-2.2253 COLON BACKSLASH -0.4592
-2.5263 COLON BACKTICK -0.2512
-2.5263 COLON BRAVO -0.2924
-0.7482 COLON BRAY 0.0307
-2.5263 COLON CHARLIE -0.3002
-1.6812 COLON CONTROL -0.1790
-2.2253 COLON DELETE -0.1881
-2.5263 COLON DELTA -0.2986
-2.0492 COLON DOWN_ARROW 0.4497
-2.5263 COLON EDITOR -0.1746
-2.5263 COLON EIGHT -0.2990
-1.2041 COLON ENTER_KEY 0.4074
-2.5263 COLON FUNCTION_KEY_3 -0.1120
-2.5263 COLON FUNCTION_KEY_4 0.5921
-1.9243 COLON HOME_KEY -0.3058
-2.5263 COLON INSERT -0.2902
-2.5263 COLON LEFT_ARROW 0.5344
-2.5263 COLON LEFT_PARENS -0.1488
-2.2253 COLON LIMA -0.1090
-2.2253 COLON NINE 0.2631
-0.7339 COLON NOVEMBER -0.9109
-1.7482 COLON ONE -0.1813
-2.5263 COLON PAGE_UP -0.3010
-2.2253 COLON PERIOD -0.1886
-2.5263 COLON PLUS -0.2319
-1.9243 COLON QUEBEC -0.1472
-2.0492 COLON QUOTATION -0.5990
-2.5263 COLON RIGHT_ARROW 0.4501
-2.2253 COLON RIGHT_BRACE -0.2316
-2.2253 COLON RIGHT_BRACKET -0.2545
-2.5263 COLON RIGHT_PARENS -0.2804
-2.5263 COLON SAVE_COMMAND 1.2524
-1.7482 COLON SEMICOLON -0.3884
-2.2253 COLON SHIFT -0.2631
-2.0492 COLON SIERRA -0.3681
-2.0492 COLON SLASH -0.3846
-2.0492 COLON UP_ARROW 0.3772
-2.2253 COLON VERTICAL_BAR -0.2711
-2.5263 COLON VICTOR -0.2893
-1.8274 COLON ZERO -0.3643
-1.9374 COMMA <UNK> 0.8130
-0.9629 COMMA </s> 2.8892
-2.1804 COMMA ALFA -0.2501
-2.7825 COMMA AT_SIGN -0.2936
-0.1623 COMMA BRAY -1.0025
-2.7825 COMMA CAPS_LOCK -0.2907
-2.7825 COMMA COMMA -0.2916
-2.4814 COMMA CONTROL -0.1918
-2.4814 COMMA DASH -0.4339
-2.7825 COMMA DELTA -0.2123
-2.7825 COMMA DOLLAR_SIGN -0.2873
-2.7825 COMMA DOWN_ARROW -0.3010
-2.7825 COMMA ECHO -0.2583
-2.3054 COMMA END_KEY 0.0105
-1.6685 COMMA ENTER_KEY 0.9397
-2.7825 COMMA EQUALS -0.2926
-2.7825 COMMA FOUR -0.2981
-2.7825 COMMA FUNCTION_KEY_4 0.5921
-2.7825 COMMA INSERT -0.2186
-2.0835 COMMA JULIET -0.3329
-2.7825 COMMA LEFT_ARROW -0.2883
-2.7825 COMMA LESS -0.2970
-2.0043 COMMA LESS_THAN_SIGN -0.8099
-2.7825 COMMA LIMA -0.2881
-2.7825 COMMA LIST -0.0771
-2.7825 COMMA NINE 0.2491
-2.4814 COMMA ONE -0.4501
-2.7825 COMMA OPEN_COMMAND 0.1249
-2.7825 COMMA OSCAR -0.2895
-1.8794 COMMA PERIOD -0.6578
-2.4814 COMMA PETER -0.2457
-2.7825 COMMA QUEBEC -0.1436
-2.7825 COMMA RIGHT_BRACE -0.2596
-2.7825 COMMA SEVEN -0.2994
-2.4814 COMMA SHIFT -0.2816
-2.7825 COMMA STAR -0.3000
-2.4814 COMMA TWO -0.2797
-2.7825 COMMA UNIFORM -0.2634
-2.7825 COMMA UP_ARROW -0.3008
-2.7825 COMMA ZERO -0.2885
-0.2825 COMPUTER <UNK> 0.3311
-0.6628 COMPUTER </s> 3.9371
-1.3617 COMPUTER COPY_COMMAND -0.2341
-1.3617 COMPUTER ENTER_KEY 0.8735
-2.1605 CONTROL <UNK> 0.5274
-0.9250 CONTROL </s> 1.4972
-3.1428 CONTROL ALFA -0.2782
-2.8640 CONTROL ALTERNATE 0.3263
-4.1428 CONTROL AT_SIGN -0.2936
-3.2977 CONTROL BACKSLASH -0.2588
-3.2977 CONTROL BRAVO -0.2877
-1.8268 CONTROL BRAY -0.3214
-1.0912 CONTROL CHARLIE -0.5068
-3.8417 CONTROL CIRCUMFLEX -0.2403
-1.6012 CONTROL CONTROL 0.0571
-2.5300 CONTROL DASH -0.2642
-3.6656 CONTROL DELETE -0.4992
-2.2290 CONTROL DELTA -0.5759
-1.8164 CONTROL DOWN_ARROW 0.2197
-2.9386 CONTROL ECHO -0.5588
-4.1428 CONTROL EDITOR -0.2823
-3.2977 CONTROL EIGHT -0.2160
-1.8331 CONTROL END_KEY -0.2318
-2.3504 CONTROL ENTER_KEY -0.6248
-1.6500 CONTROL EQUALS -1.2036
-1.5805 CONTROL ERASE -0.3533
-3.5407 CONTROL EXCLAMATION -0.2112
-2.5517 CONTROL FOXTROT -0.2843
-2.1983 CONTROL GINGER -0.6279
-2.5987 CONTROL HENRY -0.7391
-1.8003 CONTROL HOME_KEY -0.3318
-3.6656 CONTROL INDIA -0.5984
-4.1428 CONTROL INSERT -0.2902
-2.1837 CONTROL JULIET -0.5909
-4.1428 CONTROL KEYBOARD 0.6631
-2.0783 CONTROL KILO -0.7188
-4.1428 CONTROL LAUNCH_TERMINAL -0.2341
-0.7462 CONTROL LEFT_ARROW 0.4183
-2.4993 CONTROL LIMA -0.4390
-4.1428 CONTROL MOUSE -0.1015
-3.6656 CONTROL NINE -0.3906
-2.0222 CONTROL NORTH_ARROW -0.7986
-2.8205 CONTROL NOVEMBER -0.4316
-4.1428 CONTROL NUMBER_SIGN -0.2148
-3.6656 CONTROL ONE -0.1878
-1.7362 CONTROL OSCAR -1.0182
-3.2397 CONTROL PAGE_DOWN 0.2847
-3.1428 CONTROL PAGE_UP 0.4629
-4.1428 CONTROL PERCENT -0.0540
-4.1428 CONTROL PERIOD -0.3001
-3.1885 CONTROL PETER -0.1745
-2.9386 CONTROL PLUS -0.3302
-2.6656 CONTROL QUEBEC -0.2645
-3.8417 CONTROL REGULAR 0.8287
-1.0647 CONTROL RIGHT_ARROW 0.3458
-3.5407 CONTROL RIGHT_PARENS -0.2119
-1.3414 CONTROL ROBBIE -0.5408
-4.1428 CONTROL SEMICOLON -0.2997
-1.5877 CONTROL SHIFT -0.9047
-1.3661 CONTROL SIERRA -0.0971
-4.1428 CONTROL SIX -0.0514
-1.9253 CONTROL SLASH -0.4481
-4.1428 CONTROL STAR -0.1821
-4.1428 CONTROL SUPER -0.2837
-3.5407 CONTROL TABULAR -0.2865
-3.5407 CONTROL TANGO -0.3902
-3.2397 CONTROL THREE 0.1347
-3.2397 CONTROL TWO -0.0240
-2.2343 CONTROL UNDERSCORE -0.4690
-2.2735 CONTROL UNIFORM -0.8409
-2.5865 CONTROL UP_ARROW 0.5076
-2.7626 CONTROL VICTOR -0.5222
-3.5407 CONTROL VIEW 0.1392
-3.8417 CONTROL VOICE -0.1808
-2.2735 CONTROL WHISKEY -0.5995
-4.1428 CONTROL WORK_SPACE_1 1.2486
-1.9754 CONTROL X-RAY -0.7362
-0.9242 CONTROL YANKEE -0.0757
-2.9966 CONTROL ZERO -0.5018
-1.6445 CONTROL ZULU -0.5656
-0.2430 COPY_COMMAND </s> 4.0163
-0.8451 COPY_COMMAND MOUSE -0.1015
-1.6435 CUT_COMMAND <UNK> -0.1019
-0.4821 CUT_COMMAND </s> 3.2381
-1.6435 CUT_COMMAND FIVE 0.0306
-1.2455 CUT_COMMAND FOUR -0.4384
-1.9445 CUT_COMMAND LIST -0.2969
-0.8305 CUT_COMMAND NINE -0.5960
-1.9445 CUT_COMMAND SEVEN 0.0328
-1.9445 CUT_COMMAND SIX -0.0514
-0.9902 CUT_COMMAND THREE -0.5523
-0.7684 CUT_COMMAND TWO -0.4161
-0.0792 CYCLE_WINDOWS </s> 3.9371
-1.9997 DASH <UNK> 0.4656
-1.0237 DASH </s> 2.6218
-1.9675 DASH ALFA -0.6305
-2.5115 DASH ALTERNATE 0.1427
-3.1136 DASH APOSTROPHE -0.2705
-3.1136 DASH BACKSLASH -0.2723
-3.1136 DASH BIN -0.0330
-2.2685 DASH BRAVO -0.2681
-1.3502 DASH BRAY -0.1049
-1.8583 DASH CHARLIE -0.5984
-2.8126 DASH COMMA -0.4270
-1.6365 DASH CONTROL 0.0023
-0.6195 DASH DASH -0.9623
-2.8126 DASH DELETE -0.2939
-2.2685 DASH DELTA -0.1483
-2.1136 DASH DOWN_ARROW 0.4029
-1.6665 DASH ECHO -0.5295
-2.8126 DASH EDITOR -0.2678
-2.5115 DASH EIGHT -0.1939
-2.3355 DASH END_KEY -0.2304
-1.2624 DASH ENTER_KEY 0.3789
-2.4146 DASH EQUALS -0.5373
-2.6365 DASH ERASE -0.2255
-2.5115 DASH FIVE -0.2937
-1.8126 DASH FOUR -0.1966
-1.5695 DASH FOXTROT -0.8384
-3.1136 DASH FUNCTION_KEY_4 0.5921
-1.9095 DASH GINGER -0.8493
-2.3355 DASH GREATER_THAN_SIGN -0.1963
-1.6822 DASH HENRY -0.5323
-2.5115 DASH HOME_KEY -0.2243
-3.1136 DASH INSERT -0.2902
-3.1136 DASH KEYBOARD 0.6631
-3.1136 DASH KILO -0.2257
-2.2685 DASH LEFT_ARROW 0.4105
-3.1136 DASH LEFT_BRACKET -0.2269
-1.2624 DASH LIMA -0.5616
-2.6365 DASH LIST -0.0449
-2.1136 DASH MICHAEL -0.3784
-2.2105 DASH NINE -0.4037
-3.1136 DASH NORTH_ARROW -0.0219
-1.9095 DASH NOVEMBER -0.5439
-2.3355 DASH ONE -0.2015
-1.9675 DASH OSCAR -0.4358
-2.5115 DASH PAGE_DOWN 0.2297
-2.6365 DASH PAGE_UP 0.5737
-2.1136 DASH PETER -0.4241
-2.8126 DASH PLUS -0.2193
-1.5225 DASH REPEAT_COMMAND -0.1983
-2.6365 DASH RIGHT_ARROW 0.4957
-2.5115 DASH RIGHT_BRACKET -0.2391
-1.5454 DASH ROBBIE -0.4927
-2.2685 DASH SEMICOLON 0.1000
-3.1136 DASH SEVEN -0.2994
-1.6085 DASH SHIFT -0.4896
-1.5338 DASH SIERRA -0.2240
-3.1136 DASH SLASH -0.2991
-3.1136 DASH STOP -0.2846
-1.6512 DASH TABULAR -0.0649
-2.4146 DASH TANGO -0.1466
-2.2105 DASH TWO -0.1999
-2.6365 DASH UNDERSCORE -0.2491
-3.1136 DASH UNIFORM -0.2483
-2.0722 DASH UP_ARROW 0.6327
-3.1136 DASH VERTICAL_BAR -0.2908
-2.5115 DASH VICTOR -0.1987
-3.1136 DASH VIEW -0.2940
-2.4146 DASH WHISKEY -0.2206
-2.4146 DASH ZULU -0.2174
-2.0891 DELETE <UNK> 0.5999
-0.6760 DELETE </s> 2.3460
-2.0891 DELETE ALFA -0.4715
-2.1983 DELETE ALTERNATE 0.0280
-2.7423 DELETE APOSTROPHE -0.2915
-3.0434 DELETE BACKSLASH -0.2297
-2.7423 DELETE BRAVO -0.2610
-1.4201 DELETE BRAY -0.0765
-2.2652 DELETE CHARLIE -0.2921
-3.0434 DELETE COMMA -0.2916
-1.5662 DELETE CONTROL -0.3982
-2.7423 DELETE DASH -0.2980
-0.6873 DELETE DELETE -0.2310
-2.5662 DELETE DELTA -0.2539
-2.1983 DELETE DOLLAR_SIGN -0.2237
-1.6632 DELETE DOWN_ARROW 0.2731
-2.3444 DELETE ECHO -0.2202
-2.7423 DELETE EDITOR -0.1684
-1.9294 DELETE EIGHT -0.2679
-1.7211 DELETE END_KEY 0.2478
-1.1457 DELETE ENTER_KEY -0.4323
-2.5662 DELETE EQUALS -0.3817
-1.7211 DELETE ERASE 0.1022
-1.9642 DELETE FIVE 0.1037
-2.0434 DELETE FOUR -0.4274
-2.2652 DELETE FOXTROT -0.2939
-3.0434 DELETE GREATER_THAN_SIGN -0.2214
-2.4413 DELETE HENRY -0.0584
-2.3444 DELETE HOME_KEY -0.1525
-3.0434 DELETE INDIA -0.2794
-2.7423 DELETE INSERT -0.2846
-2.0891 DELETE LEFT_ARROW 0.7215
-2.5662 DELETE LEFT_PARENS -0.1450
-3.0434 DELETE LIST -0.0771
-2.1403 DELETE MICHAEL -0.1769
-2.3444 DELETE NINE 0.2470
-3.0434 DELETE NORTH_ARROW -0.2996
-2.3444 DELETE NOVEMBER -0.2491
-3.0434 DELETE NUMBER_SIGN -0.1841
-1.7423 DELETE ONE -0.0558
-2.2652 DELETE OSCAR -0.3123
-2.4413 DELETE PAGE_DOWN -0.3576
-2.4413 DELETE PAGE_UP 0.5112
-3.0434 DELETE PERCENT -0.2975
-2.5662 DELETE PERIOD -0.1936
-2.3444 DELETE PETER -0.2441
-2.5662 DELETE QUOTATION 0.0176
-1.9294 DELETE REPEAT_COMMAND -0.1024
-2.1983 DELETE RIGHT_ARROW 0.4537
-3.0434 DELETE RIGHT_BRACE -0.2650
-2.5662 DELETE RIGHT_PARENS -0.0728
-2.5662 DELETE ROBBIE -0.2535
-2.0020 DELETE SEVEN -0.1179
-1.6284 DELETE SHIFT -0.1978
-2.2652 DELETE SIERRA -0.2435
-2.1983 DELETE SIX -0.0800
-2.2652 DELETE SLASH -0.1837
-3.0434 DELETE STAR -0.2989
-2.7423 DELETE TABULAR -0.1690
-1.8972 DELETE TANGO -0.3720
-1.8972 DELETE THREE 0.1499
-1.7423 DELETE TWO -0.0232
-2.7423 DELETE UNDERSCORE -0.2407
-1.9642 DELETE UP_ARROW 0.2492
-2.7423 DELETE VICTOR -0.2981
-3.0434 DELETE VOICE -0.1697
-2.3444 DELETE WHISKEY -0.3652
-3.0434 DELETE WORK_SPACE_4 1.6075
-2.7423 DELETE YANKEE -0.2973
-2.3444 DELETE ZERO -0.1838
-3.0434 DELETE ZULU -0.2959
-2.1099 DELTA <UNK> 0.4788
-0.7332 DELTA </s> 2.0154
-1.5688 DELTA ALFA -0.1806
-1.8411 DELTA ALTERNATE -0.4257
-3.1311 DELTA AMPERSAND -0.2236
-3.4322 DELTA APOSTROPHE -0.2970
-2.7332 DELTA BACKSLASH -0.2894
-3.1311 DELTA BACKTICK -0.2628
-2.4779 DELTA BRAVO -0.2341
-0.9176 DELTA BRAY 0.2019
-2.6540 DELTA CHARLIE -0.4605
-3.4322 DELTA COMMA 0.2050
-1.8411 DELTA CONTROL 0.1161
-2.7332 DELTA DASH -0.3776
-2.8301 DELTA DELETE -0.2003
-0.7610 DELTA DELTA -0.7231
-2.4779 DELTA DOWN_ARROW 0.1721
-1.2619 DELTA ECHO -0.1761
-3.4322 DELTA EDITOR -0.2964
-2.8301 DELTA EIGHT -0.2777
-2.4779 DELTA END_KEY 0.1257
-1.3677 DELTA ENTER_KEY -0.5592
-3.1311 DELTA EQUALS -0.2943
-2.9550 DELTA ERASE -0.2289
-1.9408 DELTA FOXTROT -0.8029
-3.4322 DELTA FUNCTION_KEY_4 0.5921
-2.8301 DELTA GINGER -0.2879
-2.7332 DELTA HENRY -0.4583
-3.1311 DELTA HOME_KEY -0.0867
-1.2475 DELTA INDIA -0.3960
-2.9550 DELTA INSERT -0.2734
-2.9550 DELTA LEFT_ARROW 0.2334
-2.4779 DELTA LIMA -0.0827
-2.1099 DELTA MICHAEL -0.4087
-3.4322 DELTA NINE -0.3001
-2.8301 DELTA NORTH_ARROW -0.1974
-2.5291 DELTA NOVEMBER -0.2451
-2.9550 DELTA ONE -0.3726
-1.4193 DELTA OSCAR -0.5083
-2.7332 DELTA PAGE_DOWN 0.8949
-2.6540 DELTA PAGE_UP 0.3481
-3.4322 DELTA PASTE_COMMAND 0.1249
-3.4322 DELTA PERCENT -0.0540
-2.5871 DELTA PERIOD -0.2492
-3.4322 DELTA PETER -0.2711
-2.5871 DELTA PLUS -0.2051
-1.7162 DELTA QUEBEC -0.4894
-1.3530 DELTA REPEAT_COMMAND 0.1716
-2.8301 DELTA RIGHT_ARROW 0.3182
-2.8301 DELTA RIGHT_PARENS -0.2135
-2.2860 DELTA ROBBIE -0.3575
-3.4322 DELTA SAVE_COMMAND 1.2524
-2.8301 DELTA SEMICOLON -0.0375
-2.2561 DELTA SHIFT -0.1924
-1.7887 DELTA SIERRA -0.2337
-2.5291 DELTA SLASH -0.1662
-2.9550 DELTA STAR -0.3395
-3.4322 DELTA STOP -0.2929
-1.4877 DELTA TABULAR 0.0074
-2.1311 DELTA TANGO -0.2154
-3.4322 DELTA THREE -0.2963
-2.9550 DELTA TWO -0.5936
-2.6540 DELTA UNDERSCORE -0.2247
-3.1311 DELTA UNDO_COMMAND 0.5294
-2.0704 DELTA UNIFORM -0.4732
-2.0520 DELTA UP_ARROW 0.4522
-2.9550 DELTA VERTICAL_BAR -0.5033
-3.1311 DELTA VICTOR -0.2593
-3.4322 DELTA WHISKEY -0.3005
-3.1311 DELTA WORK_SPACE_1 1.0726
-2.2561 DELTA YANKEE -0.1822
-0.7741 DOLLAR_SIGN </s> 2.9749
-1.8075 DOLLAR_SIGN ALFA -0.2611
-2.5065 DOLLAR_SIGN APOSTROPHE -0.2529
-1.6614 DOLLAR_SIGN BRAVO -0.6096
-1.6614 DOLLAR_SIGN BRAY -0.0128
-1.5523 DOLLAR_SIGN CHARLIE -0.4162
-1.6614 DOLLAR_SIGN CONTROL -0.3989
-1.4651 DOLLAR_SIGN DASH -0.3545
-2.5065 DOLLAR_SIGN DELETE -0.2012
-2.2055 DOLLAR_SIGN DOLLAR_SIGN -0.2774
-1.9044 DOLLAR_SIGN DOWN_ARROW -0.4770
-1.8075 DOLLAR_SIGN ECHO -0.4925
-2.2055 DOLLAR_SIGN EIGHT -0.2784
-1.3926 DOLLAR_SIGN ENTER_KEY 0.0284
-1.3604 DOLLAR_SIGN FOXTROT -0.2749
-2.5065 DOLLAR_SIGN FUNCTION_KEY_4 0.5921
-2.2055 DOLLAR_SIGN HENRY -0.2034
-2.5065 DOLLAR_SIGN INDIA -0.2925
-2.5065 DOLLAR_SIGN LEFT_ARROW 0.5344
-2.5065 DOLLAR_SIGN LEFT_BRACE -0.2925
-2.2055 DOLLAR_SIGN LEFT_PARENS -0.3249
-2.5065 DOLLAR_SIGN LIMA -0.3008
-1.8075 DOLLAR_SIGN MICHAEL -0.2281
-1.6034 DOLLAR_SIGN NOVEMBER -0.3803
-2.2055 DOLLAR_SIGN NUMBER_SIGN -0.1953
-1.3024 DOLLAR_SIGN ONE -0.1408
-2.5065 DOLLAR_SIGN OSCAR -0.2835
-2.5065 DOLLAR_SIGN PAGE_DOWN -0.3009
-2.2055 DOLLAR_SIGN PERCENT -0.4719
-1.6614 DOLLAR_SIGN PETER -0.3059
-1.9044 DOLLAR_SIGN RIGHT_ARROW 0.4281
-2.5065 DOLLAR_SIGN SAVE_COMMAND 1.2524
-1.5065 DOLLAR_SIGN SHIFT -0.5078
-1.7284 DOLLAR_SIGN SIERRA -0.3493
-2.5065 DOLLAR_SIGN SIX -0.2977
-1.6614 DOLLAR_SIGN SLASH -0.4445
-2.5065 DOLLAR_SIGN STAR -0.2653
-2.5065 DOLLAR_SIGN TANGO -0.2048
-2.2055 DOLLAR_SIGN THREE -0.2862
-1.7284 DOLLAR_SIGN TWO -0.0499
-1.3926 DOLLAR_SIGN UNDERSCORE -0.4780
-2.0294 DOLLAR_SIGN UNIFORM -0.6007
-2.5065 DOLLAR_SIGN UP_ARROW 0.3396
-2.5065 DOLLAR_SIGN VERTICAL_BAR -0.2967
-1.1263 DOLLAR_SIGN WHISKEY -0.4327
-2.5065 DOLLAR_SIGN ZERO -0.2952
-3.4938 DOWN_ARROW <UNK> 0.7710
-1.3973 DOWN_ARROW </s> 1.7732
-3.1347 DOWN_ARROW ALTERNATE 0.2158
-3.8617 DOWN_ARROW AMPERSAND -0.3705
-3.7368 DOWN_ARROW APOSTROPHE -0.2170
-3.7368 DOWN_ARROW AT_SIGN -0.3295
-3.5607 DOWN_ARROW BACKSLASH -0.3054
-3.8617 DOWN_ARROW BACKTICK -0.3114
-4.0378 DOWN_ARROW BRAVO -0.2474
-2.2744 DOWN_ARROW BRAY -0.3143
-3.7368 DOWN_ARROW CHARLIE -0.3324
-4.0378 DOWN_ARROW CIRCUMFLEX -0.4627
-4.3389 DOWN_ARROW COMPUTER -0.2817
-1.5220 DOWN_ARROW CONTROL -0.4095
-4.0378 DOWN_ARROW CUT_COMMAND -0.2199
-4.0378 DOWN_ARROW DASH -0.2909
-2.8074 DOWN_ARROW DELETE -0.0749
-2.7826 DOWN_ARROW DELTA -0.5220
-4.0378 DOWN_ARROW DOLLAR_SIGN -0.4717
-0.0851 DOWN_ARROW DOWN_ARROW -0.9170
-3.4938 DOWN_ARROW ECHO -0.2561
-3.4938 DOWN_ARROW EIGHT -0.2766
-2.6954 DOWN_ARROW END_KEY 0.0358
-2.0933 DOWN_ARROW ENTER_KEY -0.0217
-4.0378 DOWN_ARROW EQUALS 0.0899
-2.8475 DOWN_ARROW ERASE 0.0561
-4.3389 DOWN_ARROW EXCLAMATION -0.2966
-3.5607 DOWN_ARROW FIVE -0.3693
-3.8617 DOWN_ARROW FOUR -0.3704
-4.0378 DOWN_ARROW GREATER_THAN_SIGN -0.2967
-2.4412 DOWN_ARROW HOME_KEY -0.1153
-4.3389 DOWN_ARROW INDIA -0.2794
-2.0909 DOWN_ARROW LEFT_ARROW 0.4170
-4.3389 DOWN_ARROW LEFT_BRACE -0.2925
-4.0378 DOWN_ARROW LEFT_BRACKET -0.4597
-3.7368 DOWN_ARROW LEFT_PARENS -0.3545
-4.0378 DOWN_ARROW LESS_THAN_SIGN -0.2896
-3.2249 DOWN_ARROW LIMA -0.1198
-4.0378 DOWN_ARROW MICHAEL -0.4161
-4.0378 DOWN_ARROW NINE -0.2976
-3.8617 DOWN_ARROW NORTH_ARROW 0.1923
-4.0378 DOWN_ARROW NOVEMBER -0.2541
-3.4938 DOWN_ARROW NUMBER_SIGN -0.2087
-3.7368 DOWN_ARROW ONE -0.0844
-2.5907 DOWN_ARROW PAGE_DOWN 1.0686
-3.1927 DOWN_ARROW PAGE_UP 0.9154
-3.8617 DOWN_ARROW PERCENT -0.3558
-4.3389 DOWN_ARROW PERIOD -0.3004
-4.0378 DOWN_ARROW PETER -0.2457
-3.8617 DOWN_ARROW PLUS -0.3893
-2.8475 DOWN_ARROW QUEBEC 0.1976
-4.3389 DOWN_ARROW QUOTATION -0.2990
-1.8177 DOWN_ARROW REPEAT_COMMAND 0.3457
-2.2351 DOWN_ARROW RIGHT_ARROW 0.1236
-4.3389 DOWN_ARROW RIGHT_BRACE -0.2961
-3.8617 DOWN_ARROW RIGHT_BRACKET -0.5883
-4.0378 DOWN_ARROW RIGHT_PARENS -0.2615
-3.8617 DOWN_ARROW ROBBIE -0.3372
-4.0378 DOWN_ARROW SAVE_COMMAND 1.0763
-4.0378 DOWN_ARROW SEMICOLON -0.2873
-4.3389 DOWN_ARROW SEVEN -0.2994
-2.0788 DOWN_ARROW SHIFT -1.2960
-4.3389 DOWN_ARROW SIERRA -0.2992
-3.4938 DOWN_ARROW SIX -0.3219
-3.3389 DOWN_ARROW SLASH -0.2610
-3.8617 DOWN_ARROW STAR -0.3599
-4.0378 DOWN_ARROW SUPER -0.2467
-3.0836 DOWN_ARROW TABULAR -0.1257
-4.3389 DOWN_ARROW TANGO -0.2716
-4.0378 DOWN_ARROW THREE -0.2963
-4.0378 DOWN_ARROW TWIDDLE -0.2924
-4.3389 DOWN_ARROW TWO -0.2992
-4.3389 DOWN_ARROW UNDERSCORE -0.2801
-4.3389 DOWN_ARROW UNIFORM -0.2430
-1.5416 DOWN_ARROW UP_ARROW 0.3232
-4.0378 DOWN_ARROW VERTICAL_BAR -0.1799
-3.8617 DOWN_ARROW VICTOR -0.2967
-4.3389 DOWN_ARROW YANKEE -0.2720
-4.3389 DOWN_ARROW ZERO -0.2860
-4.3389 DOWN_ARROW ZULU -0.2988
-0.2430 EAST_ARROW </s> 4.0163
-0.8451 EAST_ARROW BRAY -0.2005
-2.2222 ECHO <UNK> 0.5875
-1.0286 ECHO </s> 2.1980
-1.5110 ECHO ALFA 0.0145
-2.5444 ECHO ALTERNATE -0.0051
-2.9424 ECHO APOSTROPHE -0.2438
-2.1465 ECHO BRAVO -0.6058
-1.0286 ECHO BRAY 0.1924
-1.6049 ECHO CHARLIE -0.1089
-2.7663 ECHO COLON -0.3959
-2.5030 ECHO COMMA -0.1203
-2.0673 ECHO CONTROL -0.0534
-2.3140 ECHO DASH -0.3901
-3.0673 ECHO DELETE -0.0652
-1.1465 ECHO DELTA -0.6655
-3.5444 ECHO DOLLAR_SIGN -0.2915
-2.6414 ECHO DOWN_ARROW 0.5725
-1.2820 ECHO ECHO -0.7498
-3.5444 ECHO EIGHT -0.2984
-2.4653 ECHO END_KEY -0.0858
-1.4372 ECHO ENTER_KEY -0.1683
-3.5444 ECHO EQUALS -0.2934
-3.5444 ECHO ERASE -0.2990
-3.5444 ECHO FOUR -0.3000
-1.9212 ECHO FOXTROT 0.0142
-3.5444 ECHO FUNCTION_KEY_4 0.5921
-2.3683 ECHO GINGER -0.2315
-3.0673 ECHO HENRY -0.1262
-3.5444 ECHO HOME_KEY -0.2292
-2.5902 ECHO INDIA -0.1461
-2.5444 ECHO LEFT_ARROW 0.4257
-3.5444 ECHO LEFT_BRACKET -0.2609
-3.5444 ECHO LEFT_PARENS -0.2751
-3.5444 ECHO LESS -0.2806
-1.7886 ECHO LIMA -0.0714
-3.2434 ECHO LIST -0.2927
-1.2243 ECHO MICHAEL -0.7149
-3.2434 ECHO NINE -0.2991
-1.4689 ECHO NOVEMBER -0.4365
-3.0673 ECHO ONE -0.0852
-2.7663 ECHO OSCAR -0.1845
-3.0673 ECHO PAGE_DOWN 0.1046
-3.0673 ECHO PAGE_UP 0.3386
-2.3983 ECHO PERIOD -0.4523
-1.8542 ECHO PETER -0.4337
-2.6993 ECHO QUEBEC 0.0959
-2.6414 ECHO QUOTATION -0.1347
-2.6414 ECHO RIGHT_ARROW 0.4378
-3.5444 ECHO RIGHT_BRACKET -0.2545
-3.2434 ECHO RIGHT_PARENS -0.2271
-1.1942 ECHO ROBBIE -0.2417
-3.2434 ECHO SAVE_COMMAND 1.0763
-2.9424 ECHO SEMICOLON -0.0375
-3.5444 ECHO SEVEN -0.2718
-2.0259 ECHO SHIFT -0.3275
-0.7396 ECHO SIERRA -0.5683
-3.5444 ECHO SIX -0.0514
-2.7663 ECHO SLASH -0.3785
-3.5444 ECHO STAR -0.2653
-1.6752 ECHO TABULAR -0.0412
-1.6049 ECHO TANGO -0.0190
-3.0673 ECHO THREE -0.5993
-3.0673 ECHO TWO -0.2740
-2.6993 ECHO UNDERSCORE -0.2644
-2.1827 ECHO UNIFORM -0.2578
-2.5444 ECHO UP_ARROW 0.3324
-2.3403 ECHO VICTOR -0.1296
-3.2434 ECHO VOICE -0.2876
-1.9010 ECHO WHISKEY -0.2256
-1.9110 ECHO X-RAY -0.7165
-1.7383 ECHO YANKEE -0.3564
-3.0673 ECHO ZERO -0.3955
-3.5444 ECHO ZULU -0.1896
-0.5975 EDITOR </s> 3.3173
-1.9777 EDITOR ALTERNATE -0.2950
-1.9777 EDITOR BRAVO -0.2619
-1.6767 EDITOR CONTROL -0.2136
-1.9777 EDITOR DELETE -0.1982
-1.9777 EDITOR ECHO -0.3008
-1.5006 EDITOR EDITOR -0.4756
-1.9777 EDITOR EIGHT -0.1687
-1.9777 EDITOR END_KEY -0.2907
-1.9777 EDITOR ERASE -0.2430
-1.9777 EDITOR HENRY -0.2515
-1.9777 EDITOR INDIA -0.2794
-1.9777 EDITOR INSERT -0.2956
-1.6767 EDITOR LIMA -0.1246
-1.5006 EDITOR MICHAEL -0.1826
-1.9777 EDITOR NOVEMBER -0.2972
-1.9777 EDITOR ONE -0.1314
-1.5006 EDITOR OSCAR -0.3715
-1.3757 EDITOR REPEAT_COMMAND -0.1942
-1.9777 EDITOR SEVEN 0.0328
-1.9777 EDITOR SIERRA -0.2853
-1.9777 EDITOR SIX -0.2999
-1.5006 EDITOR STOP 0.0696
-1.9777 EDITOR TANGO -0.2048
-1.6767 EDITOR TWO -0.4566
-1.9777 EDITOR VICTOR -0.2625
-1.6767 EDITOR ZERO -0.2877
-1.6767 EDITOR ZULU -0.2884
-1.3084 EIGHT <UNK> 0.3344
-0.5806 EIGHT </s> 2.4797
-1.7722 EIGHT ALFA -0.1292
-2.0354 EIGHT ALTERNATE 0.1701
-2.8136 EIGHT APOSTROPHE -0.2529
-2.8136 EIGHT BIN -0.2894
-2.0354 EIGHT BRAVO -0.1547
-1.5831 EIGHT BRAY 0.0773
-2.8136 EIGHT CHARLIE -0.2869
-2.5126 EIGHT COLON -0.2919
-2.2115 EIGHT COMMA -0.2461
-1.4914 EIGHT CONTROL -0.1297
-2.8136 EIGHT CUT_COMMAND -0.1274
-2.5126 EIGHT DASH -0.1647
-1.9105 EIGHT DELETE -0.1432
-2.3365 EIGHT DELTA -0.3723
-2.5126 EIGHT DOWN_ARROW 0.4490
-2.2115 EIGHT ECHO -0.2206
-2.1146 EIGHT EDITOR -0.3189
-2.3365 EIGHT EIGHT -0.1445
-2.3365 EIGHT END_KEY 0.0981
-1.4334 EIGHT ENTER_KEY -0.2234
-2.8136 EIGHT EQUALS 0.0837
-2.8136 EIGHT ERASE -0.2955
-2.8136 EIGHT EXCLAMATION -0.2692
-1.7344 EIGHT FIVE 0.1999
-1.4156 EIGHT FOUR -0.1232
-2.8136 EIGHT FUNCTION_KEY_4 0.5921
-2.8136 EIGHT GINGER -0.2962
-2.5126 EIGHT HENRY -0.2832
-2.0354 EIGHT HOME_KEY -0.0380
-2.3365 EIGHT INDIA -0.1015
-2.2115 EIGHT INSERT -0.1849
-2.8136 EIGHT KILO -0.2998
-2.8136 EIGHT LAUNCH_TERMINAL -0.2341
-1.9685 EIGHT LEFT_ARROW 0.6090
-2.8136 EIGHT LEFT_BRACKET -0.2269
-2.3365 EIGHT LIMA -0.3611
-2.2115 EIGHT LIST -0.0486
-2.2115 EIGHT MICHAEL -0.2114
-1.7722 EIGHT NINE 0.2508
-2.5126 EIGHT NOVEMBER -0.2797
-1.6675 EIGHT ONE -0.2617
-2.5126 EIGHT OSCAR -0.1869
-2.1146 EIGHT PAGE_DOWN 1.0955
-1.8136 EIGHT PAGE_UP 0.6198
-2.5126 EIGHT PERIOD -0.2578
-2.8136 EIGHT PETER -0.2921
-2.8136 EIGHT REGULAR -0.2986
-2.8136 EIGHT RIGHT_ARROW -0.2938
-2.8136 EIGHT RIGHT_PARENS -0.2684
-2.3365 EIGHT ROBBIE -0.1496
-2.8136 EIGHT SAVE_COMMAND 1.2524
-2.3365 EIGHT SEVEN -0.2664
-2.1146 EIGHT SHIFT -0.1722
-2.5126 EIGHT SIERRA -0.0993
-2.3365 EIGHT SIX -0.2832
-2.3365 EIGHT SLASH -0.3138
-1.8593 EIGHT STAR -0.2993
-2.1146 EIGHT TABULAR -0.0186
-2.2115 EIGHT TANGO -0.2899
-1.4712 EIGHT TWO 0.1774
-2.8136 EIGHT UNDERSCORE -0.2988
-2.8136 EIGHT UNDO_COMMAND 0.5267
-2.5126 EIGHT UNIFORM -0.4623
-1.9685 EIGHT UP_ARROW 0.4022
-1.7722 EIGHT VERTICAL_BAR -0.5162
-2.8136 EIGHT VOICE -0.3008
-2.5126 EIGHT WORK_SPACE_1 1.0726
-2.8136 EIGHT WORK_SPACE_2 1.1437
-2.5126 EIGHT YANKEE -0.3238
-1.2951 EIGHT ZERO -0.6839
-2.8136 EIGHT ZULU -0.2988
-2.6160 END_KEY <UNK> 0.6990
-0.2430 END_KEY </s> 1.7398
-2.5190 END_KEY ALFA -0.1985
-1.6617 END_KEY ALTERNATE -0.2159
-2.2638 END_KEY APOSTROPHE -0.5934
-1.3855 END_KEY BRAY 0.3019
-3.2180 END_KEY CHARLIE -0.2869
-3.2180 END_KEY COLON -0.2730
-2.9170 END_KEY COMMA 0.0289
-1.2638 END_KEY CONTROL -0.2560
-2.9170 END_KEY DASH -0.2670
-2.7409 END_KEY DELETE -0.2737
-2.6160 END_KEY DELTA -0.3836
-3.2180 END_KEY DOLLAR_SIGN -0.2831
-2.3149 END_KEY DOWN_ARROW 0.8039
-3.2180 END_KEY EDITOR -0.1746
-2.3729 END_KEY EIGHT -0.2978
-1.8201 END_KEY END_KEY -0.1296
-1.4187 END_KEY ENTER_KEY 0.6535
-3.2180 END_KEY EQUALS -0.2994
-1.6052 END_KEY ERASE -0.0414
-3.2180 END_KEY EXCLAMATION -0.2831
-3.2180 END_KEY FOUR -0.3005
-2.9170 END_KEY HENRY -0.2749
-1.9170 END_KEY HOME_KEY 0.1605
-1.6269 END_KEY LEFT_ARROW 0.6360
-3.2180 END_KEY LEFT_PARENS -0.1488
-2.6160 END_KEY LIMA -0.2915
-3.2180 END_KEY LIST -0.2990
-2.9170 END_KEY NINE -0.2893
-2.9170 END_KEY NORTH_ARROW -0.1133
-2.6160 END_KEY ONE -0.2719
-2.7409 END_KEY OSCAR -0.2184
-2.3149 END_KEY PAGE_DOWN 1.1712
-1.6160 END_KEY PAGE_UP 0.4940
-2.7409 END_KEY PERIOD -0.1890
-3.2180 END_KEY PETER -0.2577
-1.8563 END_KEY QUEBEC 0.0381
-3.2180 END_KEY QUESTION_MARK -0.0280
-2.5190 END_KEY QUOTATION -0.3147
-2.9170 END_KEY RIGHT_ARROW -0.2916
-2.4399 END_KEY ROBBIE -0.3497
-3.2180 END_KEY SAVE_COMMAND 1.2524
-2.6160 END_KEY SEMICOLON 0.0830
-2.6160 END_KEY SHIFT -0.2522
-2.7409 END_KEY SIERRA -0.2110
-2.5190 END_KEY SIX -0.1314
-2.4399 END_KEY SLASH -0.2052
-2.3729 END_KEY STAR -0.5861
-2.1041 END_KEY TABULAR -0.1804
-2.9170 END_KEY TANGO -0.2477
-3.2180 END_KEY TWO -0.0140
-2.7409 END_KEY UNDERSCORE -0.2297
-2.9170 END_KEY UNIFORM -0.2987
-1.5845 END_KEY UP_ARROW 0.5414
-2.9170 END_KEY VERTICAL_BAR -0.2833
-3.2180 END_KEY VICTOR -0.2757
-3.2180 END_KEY VOICE -0.1697
-2.9170 END_KEY WHISKEY -0.2734
-3.2180 END_KEY YANKEE -0.2956
-3.2180 END_KEY ZERO -0.2994
-2.7409 END_KEY ZULU -0.2846
-3.2390 ENTER_KEY <UNK> 0.7248
-0.0301 ENTER_KEY </s> 0.7281
-3.7161 ENTER_KEY ALTERNATE -0.4351
-4.0171 ENTER_KEY BIN -0.0330
-2.8130 ENTER_KEY BRAY -0.6824
-2.2612 ENTER_KEY CONTROL -0.6965
-3.0171 ENTER_KEY DASH -0.9221
-3.0629 ENTER_KEY DELETE -0.4866
-3.3181 ENTER_KEY DELTA -0.3064
-3.3181 ENTER_KEY DOWN_ARROW -0.5226
-4.0171 ENTER_KEY ECHO -0.2743
-3.3181 ENTER_KEY EIGHT -0.2714
-1.4831 ENTER_KEY ENTER_KEY 0.6768
-3.7161 ENTER_KEY ERASE -0.2986
-3.7161 ENTER_KEY FOUR -0.1374
-3.5400 ENTER_KEY FOXTROT -0.3189
-3.7161 ENTER_KEY LEFT_ARROW -0.4644
-4.0171 ENTER_KEY LESS -0.2970
-4.0171 ENTER_KEY LIMA -0.2611
-3.5400 ENTER_KEY LIST -0.1706
-4.0171 ENTER_KEY MICHAEL -0.3005
-2.0726 ENTER_KEY NORTH_ARROW -0.6134
-3.4151 ENTER_KEY NUMBER_SIGN -0.6884
-3.5400 ENTER_KEY ONE -0.1178
-3.5400 ENTER_KEY PETER -0.3567
-2.9379 ENTER_KEY REPEAT_COMMAND -0.1822
-2.6554 ENTER_KEY SAVE_COMMAND 0.6913
-4.0171 ENTER_KEY SHIFT -0.2971
-4.0171 ENTER_KEY SIERRA -0.2935
-4.0171 ENTER_KEY SLASH -0.2256
-2.6949 ENTER_KEY STAR -0.8942
-4.0171 ENTER_KEY STOP -0.2929
-3.5400 ENTER_KEY TABULAR -0.4723
-4.0171 ENTER_KEY UNIFORM -0.2430
-4.0171 ENTER_KEY UP_ARROW -0.2927
-2.7867 ENTER_KEY WORK_SPACE_1 0.8352
-4.0171 ENTER_KEY WORK_SPACE_2 -0.2969
-4.0171 ENTER_KEY WORK_SPACE_4 1.6075
-4.0171 ENTER_KEY YANKEE -0.2691
-2.7152 EQUALS <UNK> -0.1022
-0.2309 EQUALS </s> 2.2295
-2.7152 EQUALS ALTERNATE -0.2989
-2.7152 EQUALS BACKTICK -0.2958
-1.0339 EQUALS BRAY 0.0887
-2.7152 EQUALS CAPS_LOCK -0.2167
-2.7152 EQUALS CIRCUMFLEX -0.2817
-2.7152 EQUALS COLON -0.2044
-2.0162 EQUALS CONTROL -0.2142
-2.7152 EQUALS DASH -0.2578
-2.4141 EQUALS DOLLAR_SIGN -0.2831
-2.2380 EQUALS DOWN_ARROW 0.3521
-2.7152 EQUALS END_KEY -0.3008
-2.1131 EQUALS ENTER_KEY 0.4755
-2.7152 EQUALS EQUALS -0.2589
-2.4141 EQUALS FUNCTION_KEY_4 0.4160
-2.2380 EQUALS LEFT_ARROW 0.5819
-2.1131 EQUALS LEFT_BRACKET -0.6771
-2.4141 EQUALS LEFT_PARENS -0.4355
-2.4141 EQUALS LIMA -0.1581
-2.7152 EQUALS MICHAEL -0.2868
-1.7609 EQUALS ONE -0.1862
-2.7152 EQUALS PAGE_UP -0.2975
-1.8121 EQUALS PERIOD -0.3105
-2.7152 EQUALS PETER -0.2976
-2.1131 EQUALS PLUS -0.3255
-2.7152 EQUALS QUEBEC -0.2755
-1.1241 EQUALS REPEAT_COMMAND -0.2247
-1.7152 EQUALS RIGHT_ARROW -0.0103
-2.7152 EQUALS RIGHT_BRACKET -0.2837
-2.4141 EQUALS ROBBIE -0.4338
-2.4141 EQUALS SHIFT -0.1951
-2.4141 EQUALS SIX -0.2922
-2.0162 EQUALS TWIDDLE -0.3468
-2.7152 EQUALS TWO -0.2995
-2.4141 EQUALS UP_ARROW 0.3535
-2.1131 EQUALS ZERO -0.2667
-1.7911 ERASE <UNK> 0.1691
-0.9025 ERASE </s> 1.3053
-2.3211 ERASE ALFA 0.1256
-1.7314 ERASE ALTERNATE 0.0256
-4.3123 ERASE AMPERSAND -0.1790
-2.9506 ERASE APOSTROPHE 0.0229
-4.0113 ERASE AT_SIGN -0.2626
-2.8352 ERASE BACKSLASH 0.1647
-3.6133 ERASE BACKTICK -0.2526
-4.0113 ERASE BIN -0.0223
-2.6221 ERASE BRAVO 0.2318
-1.8126 ERASE BRAY 0.6522
-3.6133 ERASE CAPS_LOCK -0.3036
-2.3211 ERASE CHARLIE -0.3994
-3.1662 ERASE CIRCUMFLEX -0.0779
-2.7325 ERASE COLON -0.6378
-1.8990 ERASE COMMA -0.7658
-1.5996 ERASE CONTROL -0.1589
-3.1082 ERASE CUT_COMMAND -0.6280
-2.3932 ERASE DASH 0.1152
-2.6402 ERASE DELETE -0.0093
-2.4038 ERASE DELTA 0.1046
-2.8071 ERASE DOLLAR_SIGN -0.0502
-1.5556 ERASE DOWN_ARROW 0.2608
-2.2259 ERASE ECHO 0.3473
-3.1362 ERASE EIGHT -0.2814
-2.5061 ERASE END_KEY -0.0060
-1.6430 ERASE ENTER_KEY -0.3751
-3.2709 ERASE EQUALS 0.2157
-0.3100 ERASE ERASE -0.0140
-3.2709 ERASE EXCLAMATION -0.1047
-2.9901 ERASE FIVE 0.1619
-2.8209 ERASE FOUR 0.0861
-2.6591 ERASE FOXTROT -0.1962
-4.3123 ERASE FUNCTION_KEY_1 -0.1249
-3.8352 ERASE FUNCTION_KEY_3 -0.4130
-2.8651 ERASE GINGER -0.1340
-3.1082 ERASE GREATER_THAN_SIGN -0.1949
-2.7441 ERASE HENRY 0.1714
-2.7560 ERASE HOME_KEY 0.0325
-2.3778 ERASE INDIA 0.2254
-4.0113 ERASE INSERT -0.2790
-4.0113 ERASE JULIET -0.2582
-3.8352 ERASE KEYBOARD 0.3621
-3.5341 ERASE KILO -0.2790
-2.1819 ERASE LEFT_ARROW 0.4212
-3.3580 ERASE LEFT_BRACE -0.1315
-2.9699 ERASE LEFT_BRACKET -0.2747
-3.0335 ERASE LEFT_PARENS 0.0245
-3.4672 ERASE LESS_THAN_SIGN -0.2518
-2.2789 ERASE LIMA -0.0715
-4.3123 ERASE LIST -0.2906
-2.4798 ERASE MICHAEL 0.1834
-4.3123 ERASE MOUSE -0.2527
-3.0335 ERASE NINE 0.1974
-3.4672 ERASE NORTH_ARROW -0.0657
-2.5641 ERASE NOVEMBER -0.0313
-3.3123 ERASE NUMBER_SIGN 0.0781
-2.5963 ERASE ONE -0.0071
-2.0156 ERASE OSCAR -0.2296
-2.6133 ERASE PAGE_DOWN 1.1883
-3.0818 ERASE PAGE_UP 0.8459
-1.8154 ERASE PERIOD -0.4016
-2.3255 ERASE PETER 0.2475
-3.4092 ERASE PLUS -0.2315
-3.4092 ERASE QUEBEC 0.0702
-3.3580 ERASE QUESTION_MARK -0.1139
-2.5489 ERASE QUOTATION -0.3182
-4.3123 ERASE REDO_COMMAND -0.2041
-1.3062 ERASE REPEAT_COMMAND 0.0773
-2.1600 ERASE RIGHT_ARROW 0.5108
-3.4092 ERASE RIGHT_BRACE 0.0224
-3.4672 ERASE RIGHT_BRACKET -0.0481
-2.6495 ERASE RIGHT_PARENS -0.1839
-2.5414 ERASE ROBBIE 0.0378
-3.2709 ERASE SAVE_COMMAND 0.7582
-2.5963 ERASE SEMICOLON -0.2061
-3.4092 ERASE SEVEN -0.0318
-2.1109 ERASE SHIFT -0.0983
-2.2749 ERASE SIERRA 0.3894
-2.9901 ERASE SIX -0.0408
-2.5489 ERASE SLASH -0.0493
-2.9321 ERASE STAR 0.0184
-4.3123 ERASE SUPER -0.2562
-1.9819 ERASE TABULAR 0.5748
-2.2295 ERASE TANGO -0.0178
-2.8499 ERASE THREE 0.1243
-3.4672 ERASE TWIDDLE -0.0941
-2.5641 ERASE TWO 0.0000
-2.6310 ERASE UNDERSCORE 0.0431
-3.1082 ERASE UNDO_COMMAND 0.6827
-2.8651 ERASE UNIFORM -0.0594
-2.3532 ERASE UP_ARROW 0.7458
-3.2331 ERASE VERTICAL_BAR -0.3285
-2.9143 ERASE VICTOR 0.0996
-4.3123 ERASE VIEW -0.2940
-2.8071 ERASE VOICE -0.6295
-2.5564 ERASE WHISKEY -0.0212
-4.3123 ERASE WORK_SPACE_1 1.2486
-4.3123 ERASE WORK_SPACE_2 1.1437
-3.7102 ERASE WORK_SPACE_4 1.2095
-4.3123 ERASE WORK_SPACE_6 0.9777
-4.3123 ERASE WORK_SPACE_8 0.8062
-4.3123 ERASE X-RAY -0.2472
-3.1082 ERASE YANKEE -0.0872
-2.8651 ERASE ZERO -0.1802
-3.4672 ERASE ZULU -0.2311
-0.0969 ESCAPE_KEY </s> 4.0163
-0.4102 ET_CETERA </s> 3.8121
-1.2553 ET_CETERA EDITOR -0.2871
-1.2553 ET_CETERA ERASE -0.2430
-1.2553 ET_CETERA SEVEN -0.2977
-1.2553 ET_CETERA SLASH -0.2951
-1.2553 ET_CETERA TWO -0.2998
-0.5977 EXCLAMATION </s> 3.3003
-1.5185 EXCLAMATION ALTERNATE -0.5897
-1.3936 EXCLAMATION AT_SIGN -0.4466
-1.9956 EXCLAMATION BRAVO -0.2698
-0.9165 EXCLAMATION BRAY 0.0484
-1.9956 EXCLAMATION CHARLIE -0.3006
-1.3936 EXCLAMATION CONTROL -0.2281
-1.9956 EXCLAMATION DELETE -0.2998
-1.6946 EXCLAMATION DOLLAR_SIGN -0.2887
-1.9956 EXCLAMATION DOWN_ARROW -0.3009
-1.6946 EXCLAMATION EIGHT -0.2714
-1.1505 EXCLAMATION ENTER_KEY 0.2714
-1.6946 EXCLAMATION FOUR 0.0475
-1.9956 EXCLAMATION LEFT_ARROW 0.5344
-1.9956 EXCLAMATION LEFT_PARENS -0.2594
-1.9956 EXCLAMATION NINE -0.3001
-1.6946 EXCLAMATION ONE -0.1022
-1.6946 EXCLAMATION RIGHT_ARROW 0.2740
-1.9956 EXCLAMATION SEMICOLON -0.2746
-1.9956 EXCLAMATION TANGO -0.2843
-1.6946 EXCLAMATION UP_ARROW 0.3535
-1.9956 EXCLAMATION ZERO -0.2624
-0.3979 FIND_COMMAND </s> 4.0163
-0.6990 FIND_COMMAND CONTROL -0.2806
-1.0000 FIND_COMMAND QUEBEC -0.2848
-2.1590 FIVE <UNK> 0.8271
-0.1616 FIVE </s> 2.0180
-2.3808 FIVE ALTERNATE -0.2878
-2.8579 FIVE BRAVO -0.2698
-1.6027 FIVE BRAY 0.1012
-2.8579 FIVE CIRCUMFLEX -0.2511
-1.7118 FIVE CONTROL -0.0098
-2.3808 FIVE DASH -0.2541
-2.5569 FIVE DELETE -0.0672
-2.8579 FIVE DELTA -0.2867
-2.3808 FIVE DOWN_ARROW 0.5301
-2.5569 FIVE EIGHT -0.1641
-1.4777 FIVE ENTER_KEY 0.0624
-2.0798 FIVE FIVE -0.0580
-2.5569 FIVE FOUR -0.2956
-2.8579 FIVE FUNCTION_KEY_4 0.5921
-2.8579 FIVE HOME_KEY -0.2994
-2.8579 FIVE LESS 0.0929
-2.8579 FIVE MICHAEL -0.2871
-2.5569 FIVE NINE -0.2957
-2.8579 FIVE NORTH_ARROW -0.2197
-1.8165 FIVE ONE -0.3174
-2.5569 FIVE PAGE_DOWN 0.4115
-2.8579 FIVE PAGE_UP -0.3008
-2.2559 FIVE PERCENT -0.0352
-2.8579 FIVE PERIOD -0.1929
-2.8579 FIVE QUEBEC -0.1169
-2.8579 FIVE RIGHT_BRACKET -0.2837
-2.8579 FIVE RIGHT_PARENS -0.2684
-2.8579 FIVE ROBBIE -0.3004
-2.5569 FIVE SEVEN 0.0782
-2.8579 FIVE SHIFT -0.2311
-1.7788 FIVE SIX -0.0642
-2.8579 FIVE SLASH -0.3007
-2.5569 FIVE STAR -0.2956
-2.1590 FIVE TABULAR -0.0330
-2.5569 FIVE THREE -0.2975
-2.0128 FIVE TWO -0.3182
-2.1590 FIVE UNDO_COMMAND 0.5287
-2.0128 FIVE UP_ARROW 0.2309
-1.9548 FIVE VERTICAL_BAR -0.9274
-2.8579 FIVE WHISKEY -0.2950
-1.8579 FIVE ZERO -0.2742
-2.5569 FIVE ZULU -0.4584
-0.0058 FORWARD_COMMAND </s> 2.8344
-1.6016 FOUR <UNK> 0.0970
-0.2655 FOUR </s> 2.0358
-2.9440 FOUR ALFA -0.2127
-1.7135 FOUR ALTERNATE -0.1125
-1.2197 FOUR BRAY -0.1647
-2.1658 FOUR CHARLIE -0.2154
-2.9440 FOUR CIRCUMFLEX -0.2511
-2.9440 FOUR COMMA 0.2050
-1.6016 FOUR CONTROL -0.1101
-2.6430 FOUR CUT_COMMAND -0.4671
-2.4669 FOUR DASH -0.2871
-2.1658 FOUR DELETE 0.0255
-2.6430 FOUR DOLLAR_SIGN -0.2095
-2.9440 FOUR DOWN_ARROW -0.3009
-2.3419 FOUR ECHO -0.3162
-1.7979 FOUR EIGHT -0.4481
-2.6430 FOUR END_KEY -0.4589
-1.5638 FOUR ENTER_KEY 0.3542
-2.4669 FOUR ERASE -0.3336
-2.0409 FOUR FIVE -0.0181
-2.6430 FOUR FOUR -0.2671
-2.9440 FOUR FUNCTION_KEY_4 0.5921
-2.6430 FOUR HOME_KEY -0.2960
-2.3419 FOUR LEFT_ARROW 0.4057
-2.1658 FOUR LIMA -0.3966
-1.9897 FOUR NINE 0.1090
-2.2450 FOUR NOVEMBER -0.2826
-1.8300 FOUR ONE -0.1515
-2.6430 FOUR OSCAR -0.2825
-2.9440 FOUR PAGE_DOWN 0.4057
-2.6430 FOUR PAGE_UP 0.4324
-2.3419 FOUR PERIOD -0.6960
-2.9440 FOUR PETER -0.2670
-2.6430 FOUR PLUS -0.4080
-2.6430 FOUR QUEBEC -0.0910
-2.4669 FOUR RIGHT_ARROW 0.5332
-2.3419 FOUR ROBBIE -0.1687
-2.9440 FOUR SEVEN 0.0328
-2.6430 FOUR SHIFT -0.4741
-2.4669 FOUR SIERRA -0.2259
-2.4669 FOUR SIX -0.2658
-2.9440 FOUR SLASH -0.2951
-2.6430 FOUR STOP -0.1427
-1.9897 FOUR TABULAR -0.2079
-2.6430 FOUR THREE 0.1873
-1.9440 FOUR TWO 0.0722
-2.4669 FOUR UNDO_COMMAND -0.5733
-2.1658 FOUR UP_ARROW 0.5094
-1.9897 FOUR VERTICAL_BAR -0.3811
-2.9440 FOUR VICTOR -0.2989
-2.9440 FOUR WHISKEY -0.2699
-2.6430 FOUR YANKEE -0.3238
-1.3529 FOUR ZERO -0.2294
-1.0053 FOXTROT </s> 2.7610
-1.4923 FOXTROT ALFA -0.2287
-1.8086 FOXTROT ALTERNATE -0.1478
-2.9547 FOXTROT BACKSLASH -0.2831
-2.9547 FOXTROT BACKTICK -0.2904
-2.1096 FOXTROT BRAVO -0.1983
-0.8441 FOXTROT BRAY 0.2888
-2.9547 FOXTROT CAPS_LOCK -0.2167
-2.1766 FOXTROT CHARLIE -0.2672
-2.1096 FOXTROT CONTROL -0.2967
-2.9547 FOXTROT DASH -0.2881
-2.4776 FOXTROT DELTA -0.2283
-1.8755 FOXTROT ECHO -0.3379
-2.6537 FOXTROT END_KEY -0.2997
-1.3015 FOXTROT ENTER_KEY -0.4883
-2.9547 FOXTROT ERASE -0.3005
-2.6537 FOXTROT FOUR 0.0655
-0.7268 FOXTROT FOXTROT -0.6891
-2.9547 FOXTROT FUNCTION_KEY_4 0.5921
-1.3315 FOXTROT GINGER -0.8083
-2.9547 FOXTROT GREATER_THAN_SIGN -0.2214
-2.0516 FOXTROT HENRY -0.4207
-1.1554 FOXTROT INDIA -0.3555
-2.4776 FOXTROT LEFT_ARROW 0.2334
-2.9547 FOXTROT LEFT_BRACE -0.2882
-2.0516 FOXTROT LEFT_BRACKET -0.4365
-2.1096 FOXTROT LIMA -0.4813
-2.4776 FOXTROT NOVEMBER -0.2672
-2.2558 FOXTROT ONE -0.3027
-1.0152 FOXTROT OSCAR -0.6050
-2.9547 FOXTROT PAGE_UP -0.2652
-2.6537 FOXTROT PERIOD -0.2471
-2.9547 FOXTROT QUEBEC -0.1169
-2.9547 FOXTROT RIGHT_ARROW -0.2839
-2.9547 FOXTROT RIGHT_BRACE -0.2596
-2.1096 FOXTROT ROBBIE -0.4757
-2.9547 FOXTROT SEMICOLON 0.0545
-2.2558 FOXTROT SHIFT -0.2059
-2.9547 FOXTROT SIERRA -0.2110
-2.9547 FOXTROT STAR -0.2653
-2.9547 FOXTROT SUPER -0.2747
-1.4634 FOXTROT TABULAR -0.0314
-1.5745 FOXTROT TANGO -0.0795
-2.4776 FOXTROT TWO -0.3790
-2.3527 FOXTROT UNDERSCORE -0.2672
-1.8755 FOXTROT UNIFORM -0.2682
-2.6537 FOXTROT UP_ARROW -0.2975
-2.4776 FOXTROT WHISKEY -0.3621
-2.9547 FOXTROT YANKEE -0.2799
-2.9547 FOXTROT ZERO -0.2497
-0.4771 FUNCTION_KEY_1 </s> 4.2381
-0.4771 FUNCTION_KEY_1 FUNCTION_KEY_2 -0.2139
-0.7404 FUNCTION_KEY_2 </s> 4.2381
-0.5643 FUNCTION_KEY_2 FOUR -0.2623
-1.0414 FUNCTION_KEY_2 FUNCTION_KEY_3 -0.2747
-1.0414 FUNCTION_KEY_2 LEFT_ARROW 0.5344
-0.3854 FUNCTION_KEY_3 </s> 3.8121
-0.4523 FUNCTION_KEY_3 DOWN_ARROW -0.3747
-1.2304 FUNCTION_KEY_3 FUNCTION_KEY_4 -0.2960
-0.0594 FUNCTION_KEY_4 </s> 2.8344
-1.9345 FUNCTION_KEY_4 BRAY -0.0395
-1.4574 FUNCTION_KEY_4 CONTROL -0.6016
-1.9345 FUNCTION_KEY_4 FUNCTION_KEY_5 -0.2041
-1.9345 FUNCTION_KEY_4 SHIFT -0.2982
-0.3979 FUNCTION_KEY_5 </s> 4.2381
-0.6990 FUNCTION_KEY_5 FUNCTION_KEY_6 -0.2430
-0.4260 FUNCTION_KEY_6 </s> 4.1132
-0.9031 FUNCTION_KEY_6 ENTER_KEY 0.8735
-0.9031 FUNCTION_KEY_6 FUNCTION_KEY_7 -0.2041
-0.3979 FUNCTION_KEY_7 </s> 4.2381
-0.6990 FUNCTION_KEY_7 FUNCTION_KEY_8 -0.2499
-0.6532 FUNCTION_KEY_8 </s> 4.2381
-0.9542 FUNCTION_KEY_8 FOUR 0.0387
-0.9542 FUNCTION_KEY_8 FUNCTION_KEY_9 -0.2041
-0.9542 FUNCTION_KEY_8 SHIFT -0.2710
-0.6990 FUNCTION_KEY_9 <UNK> 0.0615
-0.3979 FUNCTION_KEY_9 </s> 4.2381
-0.1761 FUNCTION_KEY_EIGHTEEN </s> 4.2381
-0.1761 FUNCTION_KEY_ELEVEN </s> 4.2381
-0.1761 FUNCTION_KEY_FIFTEEN </s> 4.2381
-0.1761 FUNCTION_KEY_FOURTEEN </s> 4.2381
-0.1761 FUNCTION_KEY_NINETEEN </s> 4.2381
-0.1761 FUNCTION_KEY_SEVENTEEN </s> 4.2381
-0.1761 FUNCTION_KEY_SIXTEEN </s> 4.2381
-0.1761 FUNCTION_KEY_TEN </s> 4.2381
-0.1761 FUNCTION_KEY_THIRTEEN </s> 4.2381
-0.1761 FUNCTION_KEY_TWELVE </s> 4.2381
-0.1761 FUNCTION_KEY_TWENTY </s> 4.2381
-0.1761 FUNCTION_KEY_TWENTY_FOUR </s> 4.2381
-0.1761 FUNCTION_KEY_TWENTY_ONE </s> 4.2381
-0.1761 FUNCTION_KEY_TWENTY_THREE </s> 4.2381
-0.1761 FUNCTION_KEY_TWENTY_TWO </s> 4.2381
-2.4367 GINGER <UNK> -0.2396
-0.8646 GINGER </s> 2.6621
-1.0877 GINGER ALFA -0.5106
-1.7999 GINGER ALTERNATE 0.0136
-2.6128 GINGER BRAVO -0.1623
-1.1504 GINGER BRAY 0.2131
-2.6128 GINGER CHARLIE -0.3239
-2.9138 GINGER COLON -0.2984
-2.6128 GINGER COMMA 0.3915
-1.4825 GINGER CONTROL -0.1820
-2.3118 GINGER DASH -0.3443
-2.6128 GINGER DELTA -0.2113
-2.6128 GINGER DOWN_ARROW 0.2727
-2.9138 GINGER EAST_ARROW -0.2341
-1.2417 GINGER ECHO -0.3533
-2.6128 GINGER EIGHT -0.1641
-2.6128 GINGER END_KEY -0.2836
-1.3953 GINGER ENTER_KEY 0.0991
-2.6128 GINGER ERASE -0.4190
-2.9138 GINGER FOUR -0.2813
-2.6128 GINGER FOXTROT -0.4732
-2.9138 GINGER FUNCTION_KEY_4 0.5921
-1.2606 GINGER GINGER -0.4441
-1.4825 GINGER HENRY -0.3575
-2.6128 GINGER HOME_KEY -0.0482
-1.7999 GINGER INDIA -0.2101
-2.3118 GINGER LEFT_ARROW 0.3595
-2.2148 GINGER LIMA -0.2284
-2.9138 GINGER LIST -0.0771
-2.1357 GINGER MICHAEL -0.3111
-2.2148 GINGER NINE -0.5358
-1.8724 GINGER NOVEMBER -0.2500
-2.4367 GINGER ONE -0.2637
-1.4825 GINGER OSCAR -0.1572
-2.6128 GINGER PAGE_DOWN 0.4535
-2.4367 GINGER PAGE_UP -0.2620
-2.6128 GINGER PERCENT -0.2759
-2.4367 GINGER PERIOD -0.2280
-2.6128 GINGER PETER -0.2784
-2.6128 GINGER RIGHT_ARROW -0.2809
-2.9138 GINGER RIGHT_PARENS -0.2684
-1.1076 GINGER ROBBIE -0.7850
-1.6351 GINGER SEMICOLON 0.0137
-1.6128 GINGER SHIFT -0.4336
-1.4514 GINGER SIERRA -0.1813
-2.9138 GINGER SIX -0.2933
-1.7377 GINGER SLASH -0.4690
-1.5336 GINGER TABULAR 0.0597
-2.2148 GINGER TANGO -0.4767
-2.4367 GINGER THREE -0.2787
-2.4367 GINGER TWO 0.0041
-2.3118 GINGER UNDERSCORE -0.2892
-2.1357 GINGER UNIFORM -0.2446
-2.9138 GINGER UP_ARROW -0.3010
-1.9596 GINGER VICTOR -0.4912
-2.2148 GINGER YANKEE -0.1168
-2.9138 GINGER ZERO -0.2860
-2.4367 GINGER ZULU -0.2730
-1.7054 GREATER_THAN_SIGN <UNK> -0.3663
-1.0770 GREATER_THAN_SIGN </s> 3.4600
-2.3075 GREATER_THAN_SIGN AMPERSAND -0.2829
-2.3075 GREATER_THAN_SIGN APOSTROPHE -0.2915
-2.0065 GREATER_THAN_SIGN BRAVO -0.4554
-0.7760 GREATER_THAN_SIGN BRAY 0.2444
-1.7054 GREATER_THAN_SIGN CONTROL -0.6623
-2.0065 GREATER_THAN_SIGN DELTA -0.2732
-2.3075 GREATER_THAN_SIGN DOWN_ARROW 0.4488
-0.8023 GREATER_THAN_SIGN ENTER_KEY -0.3440
-2.3075 GREATER_THAN_SIGN FUNCTION_KEY_4 0.5921
-1.7054 GREATER_THAN_SIGN GREATER_THAN_SIGN -0.3515
-2.3075 GREATER_THAN_SIGN HENRY -0.3006
-2.0065 GREATER_THAN_SIGN LEFT_ARROW 0.3584
-2.0065 GREATER_THAN_SIGN LESS_THAN_SIGN -0.2406
-2.3075 GREATER_THAN_SIGN LIMA -0.1600
-1.8304 GREATER_THAN_SIGN ONE -0.3736
-1.7054 GREATER_THAN_SIGN PERIOD -0.2262
-1.7054 GREATER_THAN_SIGN RIGHT_ARROW 0.3806
-2.3075 GREATER_THAN_SIGN ROBBIE -0.2325
-1.7054 GREATER_THAN_SIGN SEMICOLON -0.1154
-2.3075 GREATER_THAN_SIGN SHIFT -0.2990
-2.3075 GREATER_THAN_SIGN SIERRA -0.2964
-0.6447 GREATER_THAN_SIGN SLASH -0.0525
-2.3075 GREATER_THAN_SIGN STAR -0.2722
-2.3075 GREATER_THAN_SIGN TABULAR -0.2965
-2.3075 GREATER_THAN_SIGN ZULU -0.2988
-2.2980 HENRY <UNK> 0.7512
-0.9400 HENRY </s> 2.6545
-0.9000 HENRY ALFA -0.4458
-2.6959 HENRY ALTERNATE -0.2570
-2.9969 HENRY APOSTROPHE -0.2529
-1.2727 HENRY BRAY 0.2529
-2.9969 HENRY CHARLIE -0.2929
-2.2188 HENRY COMMA 0.2226
-1.9969 HENRY CONTROL -0.0784
-2.9969 HENRY DASH -0.2885
-2.5198 HENRY DELETE -0.1825
-2.9969 HENRY DELTA -0.2926
-2.2980 HENRY DOWN_ARROW 0.2822
-0.7321 HENRY ECHO -0.3540
-2.9969 HENRY EIGHT -0.2936
-2.2980 HENRY END_KEY -0.2705
-1.2188 HENRY ENTER_KEY -0.0232
-2.9969 HENRY EQUALS 0.0837
-2.9969 HENRY FUNCTION_KEY_4 0.5921
-2.9969 HENRY GINGER -0.2865
-2.6959 HENRY GREATER_THAN_SIGN -0.2163
-1.8508 HENRY HENRY -0.5566
-2.9969 HENRY HOME_KEY -0.2476
-1.0102 HENRY INDIA -0.3612
-2.2980 HENRY JULIET -0.7606
-2.9969 HENRY LEFT_ARROW -0.3006
-2.6959 HENRY LEFT_PARENS -0.2415
-2.6959 HENRY LIMA -0.2555
-2.1519 HENRY MICHAEL -0.3642
-2.6959 HENRY NOVEMBER -0.2775
-0.9676 HENRY OSCAR -0.1500
-2.2980 HENRY PAGE_DOWN 0.7517
-2.9969 HENRY PERIOD -0.2989
-2.6959 HENRY PETER -0.2271
-2.9969 HENRY QUEBEC -0.2976
-2.5198 HENRY RIGHT_ARROW 0.1491
-2.5198 HENRY RIGHT_PARENS -0.2200
-2.2980 HENRY ROBBIE -0.3284
-2.9969 HENRY SHIFT -0.2952
-1.9969 HENRY SIERRA -0.2208
-2.3949 HENRY SLASH -0.3578
-1.4172 HENRY TABULAR 0.1575
-1.7928 HENRY TANGO -0.1417
-2.9969 HENRY THREE -0.2870
-1.9969 HENRY UNDERSCORE -0.4488
-1.8508 HENRY UNIFORM -0.2304
-2.9969 HENRY UP_ARROW -0.2979
-2.9969 HENRY WHISKEY -0.2699
-2.5198 HENRY YANKEE -0.3629
-2.9969 HENRY ZERO -0.2826
-2.6959 HENRY ZULU -0.1829
-3.1179 HOME_KEY <UNK> -0.1022
-0.4875 HOME_KEY </s> 2.0838
-2.8169 HOME_KEY ALFA -0.2396
-0.9361 HOME_KEY ALTERNATE -0.0729
-3.1179 HOME_KEY BIN -0.0330
-2.8169 HOME_KEY BRAVO -0.2681
-1.8875 HOME_KEY BRAY -0.1281
-2.1637 HOME_KEY CHARLIE -0.4793
-0.8169 HOME_KEY CONTROL -0.4211
-3.1179 HOME_KEY DASH -0.2919
-1.5865 HOME_KEY DELETE 0.0039
-3.1179 HOME_KEY DELTA -0.2123
-2.6408 HOME_KEY DOLLAR_SIGN -0.3097
-1.8392 HOME_KEY DOWN_ARROW 0.2651
-2.4190 HOME_KEY ECHO -0.3345
-3.1179 HOME_KEY EDITOR -0.2964
-1.8875 HOME_KEY EIGHT -0.3004
-1.9418 HOME_KEY END_KEY 0.3305
-2.0040 HOME_KEY ENTER_KEY 0.5490
-2.1179 HOME_KEY ERASE 0.1218
-3.1179 HOME_KEY FOUR -0.2995
-3.1179 HOME_KEY FOXTROT -0.2569
-2.6408 HOME_KEY FUNCTION_KEY_4 -0.5866
-1.7030 HOME_KEY HOME_KEY -0.0919
-3.1179 HOME_KEY LEFT_ARROW -0.3004
-3.1179 HOME_KEY LEFT_PARENS -0.2876
-3.1179 HOME_KEY LESS_THAN_SIGN -0.2954
-2.4190 HOME_KEY LIMA -0.3468
-3.1179 HOME_KEY LIST -0.2969
-2.6408 HOME_KEY MICHAEL -0.3332
-3.1179 HOME_KEY NORTH_ARROW -0.2860
-3.1179 HOME_KEY NOVEMBER -0.2956
-1.4367 HOME_KEY NUMBER_SIGN -0.5294
-2.6408 HOME_KEY ONE -0.3934
-1.4845 HOME_KEY PAGE_DOWN 0.8894
-2.4190 HOME_KEY PAGE_UP 0.3936
-3.1179 HOME_KEY PERCENT -0.2993
-2.6408 HOME_KEY PERIOD -0.5625
-1.8169 HOME_KEY QUEBEC -0.3996
-1.1937 HOME_KEY RIGHT_ARROW -0.0822
-2.8169 HOME_KEY ROBBIE -0.2561
-2.4190 HOME_KEY SHIFT -0.2031
-2.0765 HOME_KEY SIERRA -0.1660
-3.1179 HOME_KEY SIX -0.2977
-1.6128 HOME_KEY SLASH -0.2178
-3.1179 HOME_KEY STAR -0.1821
-2.6408 HOME_KEY TABULAR -0.2924
-2.8169 HOME_KEY THREE -0.2971
-2.6408 HOME_KEY TWO -0.2915
-2.8169 HOME_KEY UNDERSCORE -0.2515
-2.1637 HOME_KEY UP_ARROW 0.4959
-2.6408 HOME_KEY WHISKEY -0.2843
-2.6408 HOME_KEY ZULU -0.1329
-0.1576 HYPER </s> 3.4848
-1.3617 HYPER BRAY -0.0395
-1.3617 HYPER LIST -0.0771
-1.3617 HYPER TAR -0.2688
-2.1868 INDIA <UNK> 0.7503
-1.3143 INDIA </s> 2.7961
-1.9977 INDIA ALFA -0.1964
-3.2281 INDIA AMPERSAND -0.1790
-2.3830 INDIA APOSTROPHE -0.2333
-3.2281 INDIA BIN -0.0330
-2.2281 INDIA BRAVO -0.4490
-1.7096 INDIA BRAY -0.4702
-1.0851 INDIA CHARLIE -0.6107
-2.0820 INDIA CONTROL -0.3929
-2.9271 INDIA DASH -0.2308
-3.2281 INDIA DELETE -0.2955
-1.9059 INDIA DELTA -0.2312
-2.6261 INDIA DOWN_ARROW 0.4940
-1.5560 INDIA ECHO -0.2906
-2.6261 INDIA END_KEY 0.0459
-1.8132 INDIA ENTER_KEY -0.2569
-3.2281 INDIA EQUALS -0.2934
-3.2281 INDIA ERASE -0.2984
-1.5560 INDIA FOXTROT -0.4477
-3.2281 INDIA FUNCTION_KEY_4 0.5921
-1.4152 INDIA GINGER -0.4948
-1.6261 INDIA INDIA -0.5976
-3.2281 INDIA INSERT -0.2956
-2.9271 INDIA JULIET -0.2915
-2.7510 INDIA KILO -0.3052
-2.6261 INDIA LEFT_ARROW 0.1365
-1.2238 INDIA LIMA -0.1764
-3.2281 INDIA LIST -0.0771
-1.7810 INDIA MICHAEL -0.3796
-2.3830 INDIA NINE -0.3255
-0.6611 INDIA NOVEMBER -0.0646
-1.7510 INDIA OSCAR -0.9835
-3.2281 INDIA PAGE_DOWN -0.2920
-2.9271 INDIA PERCENT -0.2740
-2.1490 INDIA PETER -0.2628
-3.2281 INDIA PLUS -0.2968
-3.2281 INDIA QUEBEC -0.2976
-2.4500 INDIA QUOTATION -0.1302
-3.2281 INDIA RIGHT_ARROW 0.4501
-3.2281 INDIA RIGHT_PARENS -0.2629
-1.7510 INDIA ROBBIE -0.3940
-2.9271 INDIA SEMICOLON 0.0576
-3.2281 INDIA SEVEN 0.0328
-2.2281 INDIA SHIFT -0.3727
-1.0608 INDIA SIERRA -0.5389
-3.2281 INDIA SOUTH_ARROW 0.2218
-2.9271 INDIA STAR -0.4211
-3.2281 INDIA SUPER -0.2467
-1.2369 INDIA TABULAR -0.2270
-1.0435 INDIA TANGO -0.2964
-2.9271 INDIA TWO -0.2987
-2.6261 INDIA UNDERSCORE -0.2607
-2.6261 INDIA UNIFORM -0.4164
-3.2281 INDIA VERTICAL_BAR -0.2908
-2.0240 INDIA VICTOR -0.6976
-3.2281 INDIA X-RAY -0.2998
-3.2281 INDIA ZERO -0.2994
-2.1490 INDIA ZULU -0.5645
-1.9085 INSERT <UNK> -0.3007
-0.7624 INSERT </s> 3.5391
-1.4314 INSERT BRAY -0.0279
-1.9085 INSERT CHANGE_DIRECTORY -0.2846
-1.4314 INSERT DELETE -0.2854
-1.9085 INSERT DOWN_ARROW -0.3010
-1.6075 INSERT END_KEY -0.2742
-1.9085 INSERT FIVE -0.2998
-1.9085 INSERT FOUR -0.3000
-1.9085 INSERT HENRY -0.2481
-1.6075 INSERT HOME_KEY -0.2927
-1.6075 INSERT INDIA -0.2961
-1.6075 INSERT INSERT -0.2734
-1.9085 INSERT JULIET -0.1065
-1.9085 INSERT KEYBOARD -0.3002
-1.9085 INSERT LESS -0.2970
-1.9085 INSERT LIMA -0.2693
-1.6075 INSERT LIST -0.0737
-1.6075 INSERT NINE 0.2543
-1.9085 INSERT OSCAR -0.2826
-1.9085 INSERT PAGE_DOWN -0.2326
-1.9085 INSERT PERIOD -0.2747
-1.9085 INSERT RIGHT_BRACE -0.2860
-1.9085 INSERT SEVEN -0.2718
-1.4314 INSERT SHIFT -0.2381
-1.9085 INSERT SLASH -0.2694
-1.9085 INSERT UP_ARROW 0.3396
-1.9085 INSERT VICTOR -0.3003
-1.7435 JULIET <UNK> -0.5793
-0.4425 JULIET </s> 2.7109
-1.1203 JULIET ALFA -0.4911
-2.4425 JULIET ALTERNATE -0.3006
-2.4425 JULIET APOSTROPHE -0.2588
-1.7435 JULIET BRAY -0.2420
-1.6643 JULIET CONTROL -0.1290
-2.4425 JULIET DASH -0.2766
-2.4425 JULIET DOWN_ARROW 0.4488
-1.7435 JULIET ECHO -0.5324
-2.4425 JULIET EIGHT -0.2861
-2.1414 JULIET END_KEY 0.0713
-1.2964 JULIET ENTER_KEY -0.0016
-1.7435 JULIET ERASE -0.3672
-2.4425 JULIET FUNCTION_KEY_4 0.5921
-2.4425 JULIET GINGER -0.2865
-2.1414 JULIET HOME_KEY -0.4657
-1.9654 JULIET INDIA -0.2756
-2.1414 JULIET KILO -0.2962
-1.4011 JULIET LIMA -0.3325
-2.4425 JULIET LOWER_WINDOW -0.2553
-2.4425 JULIET NOVEMBER -0.2985
-1.6643 JULIET ONE -0.6755
-1.6643 JULIET OSCAR -0.3506
-2.4425 JULIET PERIOD -0.2941
-2.4425 JULIET PETER -0.2921
-1.8404 JULIET QUEBEC -0.4540
-2.4425 JULIET REGULAR -0.2986
-2.4425 JULIET REPEAT_COMMAND -0.2421
-2.1414 JULIET RIGHT_ARROW -0.4742
-1.5974 JULIET ROBBIE -0.4700
-2.1414 JULIET SHIFT -0.4660
-2.1414 JULIET STAR -0.2438
-1.8404 JULIET TABULAR -0.1168
-2.4425 JULIET TANGO -0.3009
-1.5974 JULIET UNIFORM -0.4360
-2.4425 JULIET UP_ARROW -0.2987
-2.4425 JULIET U_S_R -0.2499
-2.4425 JULIET YANKEE -0.2969
-1.4265 KEYBOARD <UNK> 0.4601
-0.0499 KEYBOARD </s> 2.0367
-1.6484 KEYBOARD CONTROL -1.0281
-1.8245 KEYBOARD ERASE -0.3355
-2.7275 KEYBOARD HENRY -0.2564
-2.7275 KEYBOARD LESS_THAN_SIGN -0.2470
-2.7275 KEYBOARD MICHAEL -0.2760
-2.7275 KEYBOARD ONE -0.2995
-2.7275 KEYBOARD TANGO -0.2587
-2.7275 KEYBOARD UNDO_COMMAND -0.2990
-2.7275 KEYBOARD WHISKEY -0.2617
-1.7160 KILO <UNK> -0.5406
-0.4372 KILO </s> 2.5881
-2.5611 KILO ALFA -0.2858
-2.5611 KILO ALTERNATE 0.0132
-1.8621 KILO BRAY -0.2397
-2.2601 KILO COMMA 0.3915
-1.3307 KILO CONTROL -0.8238
-2.5611 KILO CUT_COMMAND -0.2961
-1.9590 KILO DELTA -0.6737
-0.7977 KILO ECHO -0.3676
-1.6069 KILO ENTER_KEY 0.1745
-2.5611 KILO ET_CETERA -0.2762
-2.5611 KILO FUNCTION_KEY_4 0.5921
-1.4819 KILO INDIA -0.5274
-2.2601 KILO LIMA -0.4372
-2.5611 KILO NORTH_ARROW -0.2197
-2.2601 KILO NOVEMBER -0.4626
-2.2601 KILO ONE -0.3075
-1.8621 KILO OSCAR -0.4072
-1.7160 KILO PERIOD -0.4132
-1.7830 KILO REPEAT_COMMAND -0.0498
-2.5611 KILO ROBBIE -0.2839
-2.2601 KILO SHIFT -0.4743
-1.7160 KILO SIERRA -0.5810
-2.5611 KILO SLASH -0.2256
-1.6580 KILO TABULAR -0.8245
-2.0840 KILO TANGO -0.2360
-2.5611 KILO TWO -0.2995
-1.9590 KILO UNDERSCORE -0.1862
-1.1461 KILO UNDO_COMMAND 0.0995
-2.5611 KILO WHISKEY -0.2983
-2.5611 KILO X-RAY -0.1706
-0.5441 LAUNCH_TERMINAL </s> 4.2381
-0.8451 LAUNCH_TERMINAL ERASE -0.0088
-0.8451 LAUNCH_TERMINAL KILO -0.2962
-2.9521 LEFT_ARROW <UNK> 0.7557
-1.5407 LEFT_ARROW </s> 1.6802
-3.4962 LEFT_ARROW ALFA -0.2963
-1.9615 LEFT_ARROW ALTERNATE -0.2218
-4.2743 LEFT_ARROW AMPERSAND -0.3551
-3.1604 LEFT_ARROW APOSTROPHE -0.3507
-4.5754 LEFT_ARROW AT_SIGN -0.2861
-2.8430 LEFT_ARROW BACKSLASH -0.3149
-3.9733 LEFT_ARROW BACKTICK -0.2270
-4.5754 LEFT_ARROW BIN -0.0330
-4.0982 LEFT_ARROW BRAVO -0.2372
-2.4682 LEFT_ARROW BRAY 0.1611
-4.2743 LEFT_ARROW CAPS_LOCK -0.2637
-3.5754 LEFT_ARROW CHARLIE -0.1742
-4.0982 LEFT_ARROW CIRCUMFLEX -0.2293
-4.5754 LEFT_ARROW COLON -0.2044
-4.5754 LEFT_ARROW COMMA -0.2510
-1.5824 LEFT_ARROW CONTROL -0.7298
-4.2743 LEFT_ARROW CUT_COMMAND -0.1347
-3.2329 LEFT_ARROW DASH -0.0903
-2.5886 LEFT_ARROW DELETE 0.0706
-4.2743 LEFT_ARROW DELTA -0.1915
-3.2966 LEFT_ARROW DOLLAR_SIGN -0.0969
-2.6777 LEFT_ARROW DOWN_ARROW 0.1812
-3.1774 LEFT_ARROW ECHO -0.1549
-4.5754 LEFT_ARROW EDITOR -0.1746
-3.9733 LEFT_ARROW EIGHT -0.3468
-3.7972 LEFT_ARROW END_KEY 0.0477
-2.8764 LEFT_ARROW ENTER_KEY -0.5331
-3.8764 LEFT_ARROW EQUALS -0.2848
-1.8210 LEFT_ARROW ERASE 0.2000
-4.5754 LEFT_ARROW ET_CETERA -0.0872
-4.0982 LEFT_ARROW EXCLAMATION -0.3565
-4.2743 LEFT_ARROW FOUR -0.2981
-3.9733 LEFT_ARROW FOXTROT -0.0875
-3.7972 LEFT_ARROW GINGER -0.5321
-3.9733 LEFT_ARROW GREATER_THAN_SIGN -0.3063
-3.5754 LEFT_ARROW HENRY -0.2200
-3.4614 LEFT_ARROW HOME_KEY -0.2820
-3.5340 LEFT_ARROW INDIA -0.2915
-0.0686 LEFT_ARROW LEFT_ARROW -0.2495
-3.8764 LEFT_ARROW LEFT_BRACE -0.3674
-3.8764 LEFT_ARROW LEFT_BRACKET -0.2009
-3.0840 LEFT_ARROW LEFT_PARENS -0.1664
-4.0982 LEFT_ARROW LESS_THAN_SIGN -0.3176
-3.4292 LEFT_ARROW LIMA -0.1736
-4.2743 LEFT_ARROW LIST -0.0667
-3.4962 LEFT_ARROW MICHAEL -0.4040
-4.5754 LEFT_ARROW NINE -0.3001
-4.5754 LEFT_ARROW NORTH_ARROW -0.0219
-3.3993 LEFT_ARROW NOVEMBER -0.2085
-3.6211 LEFT_ARROW NUMBER_SIGN -0.1665
-3.7972 LEFT_ARROW ONE -0.3217
-3.7303 LEFT_ARROW OSCAR -0.3933
-3.5754 LEFT_ARROW PAGE_DOWN 1.1587
-3.4962 LEFT_ARROW PAGE_UP 0.8028
-3.2966 LEFT_ARROW PERIOD -0.3997
-3.4614 LEFT_ARROW PETER -0.3421
-4.5754 LEFT_ARROW PLUS -0.2946
-4.2743 LEFT_ARROW QUEBEC -0.1023
-3.3449 LEFT_ARROW QUOTATION -0.0610
-1.6963 LEFT_ARROW REPEAT_COMMAND 0.3137
-1.8959 LEFT_ARROW RIGHT_ARROW 0.8677
-4.2743 LEFT_ARROW RIGHT_BRACE -0.2430
-4.5754 LEFT_ARROW RIGHT_BRACKET -0.2620
-3.4614 LEFT_ARROW RIGHT_PARENS -0.2703
-3.7303 LEFT_ARROW ROBBIE -0.2493
-4.2743 LEFT_ARROW SAVE_COMMAND 1.3079
-3.4962 LEFT_ARROW SEMICOLON 0.0270
-3.0072 LEFT_ARROW SHIFT 0.0557
-3.2743 LEFT_ARROW SIERRA -0.2990
-4.2743 LEFT_ARROW SIX -0.0275
-3.2743 LEFT_ARROW SLASH -0.0637
-3.9733 LEFT_ARROW STAR -0.4199
-4.2743 LEFT_ARROW TABULAR -0.3474
-3.5340 LEFT_ARROW TANGO -0.3016
-4.5754 LEFT_ARROW TAR -0.1963
-3.9733 LEFT_ARROW THREE -0.3364
-4.5754 LEFT_ARROW TWIDDLE 0.0544
-3.5754 LEFT_ARROW TWO -0.0467
-3.1282 LEFT_ARROW UNDERSCORE -0.4013
-4.5754 LEFT_ARROW UNIFORM -0.2472
-2.6669 LEFT_ARROW UP_ARROW 0.6534
-3.7972 LEFT_ARROW VERTICAL_BAR -0.2345
-4.5754 LEFT_ARROW VIEW -0.2868
-4.5754 LEFT_ARROW WEST_ARROW 0.3010
-3.6723 LEFT_ARROW WHISKEY -0.2782
-4.5754 LEFT_ARROW WORK_SPACE_4 1.6075
-4.5754 LEFT_ARROW X_ELEVEN 0.3010
-4.5754 LEFT_ARROW YANKEE -0.2794
-4.0982 LEFT_ARROW ZULU -0.2827
-1.4108 LEFT_BRACE </s> 4.0163
-1.5357 LEFT_BRACE BRAY 0.1709
-2.0128 LEFT_BRACE CIRCUMFLEX -0.2511
-1.7118 LEFT_BRACE CONTROL -0.4380
-2.0128 LEFT_BRACE DELTA -0.2123
-1.7118 LEFT_BRACE DOLLAR_SIGN -0.2745
-1.5357 LEFT_BRACE DOWN_ARROW 0.4509
-1.7118 LEFT_BRACE ECHO -0.2527
-1.3139 LEFT_BRACE ENTER_KEY 0.3964
-1.7118 LEFT_BRACE FOUR 0.0431
-1.7118 LEFT_BRACE FUNCTION_KEY_4 0.4160
-1.7118 LEFT_BRACE LEFT_ARROW -0.2888
-2.0128 LEFT_BRACE LEFT_PARENS -0.2751
-2.0128 LEFT_BRACE LESS_THAN_SIGN -0.2719
-2.0128 LEFT_BRACE NOVEMBER -0.2699
-1.7118 LEFT_BRACE ONE -0.2990
-1.1097 LEFT_BRACE PETER -0.9109
-2.0128 LEFT_BRACE PLUS -0.2218
-1.0586 LEFT_BRACE RIGHT_ARROW 0.1933
-1.4108 LEFT_BRACE RIGHT_BRACE -0.4465
-0.8989 LEFT_BRACE RIGHT_BRACKET -0.4506
-1.7118 LEFT_BRACE SHIFT -0.2872
-1.5357 LEFT_BRACE THREE 0.0531
-1.5357 LEFT_BRACE TWO -0.3964
-2.0128 LEFT_BRACE UP_ARROW -0.3010
-1.5315 LEFT_BRACKET </s> 4.1132
-2.0086 LEFT_BRACKET ALFA -0.2127
-1.2304 LEFT_BRACKET BRAY -0.5874
-1.3096 LEFT_BRACKET CIRCUMFLEX -0.2006
-1.7076 LEFT_BRACKET CONTROL -0.2899
-1.4065 LEFT_BRACKET DOWN_ARROW -0.4735
-2.0086 LEFT_BRACKET END_KEY 0.0669
-1.5315 LEFT_BRACKET ENTER_KEY 0.5724
-2.0086 LEFT_BRACKET FOUR -0.2995
-2.0086 LEFT_BRACKET FUNCTION_KEY_4 0.5921
-2.0086 LEFT_BRACKET INSERT -0.2846
-2.0086 LEFT_BRACKET LEFT_ARROW 0.5344
-1.5315 LEFT_BRACKET LEFT_BRACE -0.2424
-1.0544 LEFT_BRACKET ONE -0.7333
-1.7076 LEFT_BRACKET PETER -0.4338
-1.4065 LEFT_BRACKET RIGHT_ARROW 0.3806
-1.3096 LEFT_BRACKET RIGHT_BRACKET -0.5268
-2.0086 LEFT_BRACKET RIGHT_PARENS -0.2972
-1.1635 LEFT_BRACKET SHIFT -0.3039
-2.0086 LEFT_BRACKET THREE -0.3006
-2.0086 LEFT_BRACKET TWO -0.3005
-2.0086 LEFT_BRACKET UP_ARROW -0.2927
-0.8045 LEFT_BRACKET ZERO -0.9298
-1.3398 LEFT_PARENS <UNK> 0.5879
-0.5291 LEFT_PARENS </s> 2.7240
-2.5159 LEFT_PARENS ALTERNATE -0.2791
-2.2148 LEFT_PARENS BACKSLASH -0.2922
-1.5159 LEFT_PARENS BRAY 0.1827
-1.9138 LEFT_PARENS COMMA -0.4662
-1.7377 LEFT_PARENS CONTROL -0.3708
-2.5159 LEFT_PARENS DASH -0.2578
-2.5159 LEFT_PARENS DELETE -0.2975
-2.5159 LEFT_PARENS DELTA -0.3004
-1.5616 LEFT_PARENS DOLLAR_SIGN -0.2399
-1.9138 LEFT_PARENS DOWN_ARROW -0.3621
-2.5159 LEFT_PARENS ECHO -0.2689
-2.5159 LEFT_PARENS END_KEY -0.2907
-1.8169 LEFT_PARENS ENTER_KEY 0.3964
-2.5159 LEFT_PARENS ERASE -0.2939
-2.0388 LEFT_PARENS EXCLAMATION -0.1947
-1.4367 LEFT_PARENS FOUR -0.3166
-2.5159 LEFT_PARENS FUNCTION_KEY_2 -0.1627
-2.5159 LEFT_PARENS HOME_KEY -0.2960
-2.2148 LEFT_PARENS INDIA -0.3702
-1.6708 LEFT_PARENS LEFT_ARROW 0.5460
-2.5159 LEFT_PARENS LEFT_PARENS -0.2917
-2.5159 LEFT_PARENS LIMA -0.1600
-2.5159 LEFT_PARENS LIST -0.2990
-2.5159 LEFT_PARENS MICHAEL -0.2862
-1.6128 LEFT_PARENS NINE 0.1519
-2.5159 LEFT_PARENS NOVEMBER -0.2699
-2.2148 LEFT_PARENS ONE -0.1292
-2.5159 LEFT_PARENS PERCENT -0.0540
-2.5159 LEFT_PARENS PERIOD -0.2977
-2.5159 LEFT_PARENS QUOTATION -0.2949
-1.0388 LEFT_PARENS RIGHT_ARROW 0.1617
-1.2371 LEFT_PARENS RIGHT_PARENS -0.1565
-2.2148 LEFT_PARENS ROBBIE -0.4338
-1.8169 LEFT_PARENS SHIFT -0.3357
-2.2148 LEFT_PARENS SIERRA -0.2958
-2.5159 LEFT_PARENS SIX -0.2977
-1.5616 LEFT_PARENS SLASH -0.2280
-2.5159 LEFT_PARENS TABULAR -0.2224
-2.5159 LEFT_PARENS TANGO -0.3009
-2.5159 LEFT_PARENS UP_ARROW -0.2927
-2.5159 LEFT_PARENS VERTICAL_BAR -0.2996
-2.5159 LEFT_PARENS VOICE -0.2646
-2.5159 LEFT_PARENS WORK_SPACE_1 1.2486
-1.8169 LEFT_PARENS ZERO -0.3136
-1.7364 LESS <UNK> 0.8751
-0.2245 LESS </s> 2.8957
-2.0374 LESS DELTA -0.3009
-2.0374 LESS ECHO -0.2901
-2.0374 LESS EIGHT -0.2984
-2.0374 LESS KILO -0.1035
-2.0374 LESS LESS 0.0929
-1.3385 LESS ONE -0.0362
-2.0374 LESS OSCAR -0.2968
-2.0374 LESS PERIOD -0.2747
-2.0374 LESS QUOTATION -0.2792
-2.0374 LESS REGULAR 1.0048
-2.0374 LESS SAVE_COMMAND -0.3005
-2.0374 LESS SHIFT -0.2922
-2.0374 LESS SIERRA -0.2989
-2.0374 LESS SLASH -0.2753
-2.0374 LESS TANGO -0.2048
-2.0374 LESS TWIDDLE -0.2881
-2.0374 LESS UNDERSCORE -0.2612
-2.0374 LESS VICTOR -0.2088
-0.9322 LESS_THAN_SIGN </s> 3.7152
-1.8865 LESS_THAN_SIGN ALFA -0.2813
-1.1875 LESS_THAN_SIGN BRAY -0.4182
-1.1083 LESS_THAN_SIGN COMMA -0.5471
-1.8865 LESS_THAN_SIGN CONTROL -0.2460
-1.4094 LESS_THAN_SIGN EQUALS -0.2883
-1.8865 LESS_THAN_SIGN EXCLAMATION -0.1746
-1.8865 LESS_THAN_SIGN FOXTROT -0.2559
-1.8865 LESS_THAN_SIGN FUNCTION_KEY_4 0.5921
-1.1875 LESS_THAN_SIGN GREATER_THAN_SIGN -0.5266
-1.8865 LESS_THAN_SIGN INSERT -0.2902
-1.8865 LESS_THAN_SIGN LIMA -0.3008
-0.8073 LESS_THAN_SIGN PERIOD -0.5113
-1.8865 LESS_THAN_SIGN QUOTATION -0.2887
-1.8865 LESS_THAN_SIGN ROBBIE -0.2679
-1.4094 LESS_THAN_SIGN SHIFT -0.3770
-1.4094 LESS_THAN_SIGN SIERRA -0.3285
-1.5855 LESS_THAN_SIGN SLASH -0.4646
-1.8865 LESS_THAN_SIGN ZERO -0.3002
-2.5664 LIMA <UNK> -0.2739
-1.0568 LIMA </s> 2.4252
-1.5057 LIMA ALFA -0.1143
-2.5664 LIMA ALTERNATE -0.3210
-3.0436 LIMA APOSTROPHE -0.2361
-3.3446 LIMA AT_SIGN -0.2936
-3.3446 LIMA BACK_COMMAND -0.3005
-3.0436 LIMA BRAVO -0.2574
-1.0966 LIMA BRAY 0.0257
-2.4995 LIMA CHARLIE -0.4079
-3.0436 LIMA COMMA 0.2214
-1.9296 LIMA CONTROL -0.1602
-2.3032 LIMA DASH -0.3561
-2.6456 LIMA DELETE -0.1109
-1.6286 LIMA DELTA -0.2273
-3.3446 LIMA DOWN_ARROW -0.2884
-0.5571 LIMA ECHO -0.4729
-3.3446 LIMA EDITOR -0.2964
-2.8675 LIMA EIGHT -0.2546
-2.8675 LIMA END_KEY 0.1128
-1.5593 LIMA ENTER_KEY -0.2867
-3.3446 LIMA EQUALS -0.2968
-3.3446 LIMA FIVE -0.3004
-2.3032 LIMA FOXTROT -0.6013
-3.3446 LIMA FUNCTION_KEY_4 0.5921
-3.0436 LIMA GINGER -0.2815
-2.8675 LIMA HOME_KEY -0.2590
-3.3446 LIMA HYPER 0.2156
-1.1515 LIMA INDIA -0.5863
-3.0436 LIMA INSERT -0.2902
-2.7425 LIMA KILO -0.2701
-2.6456 LIMA LEFT_ARROW 0.0573
-1.2477 LIMA LIMA -0.1758
-3.3446 LIMA LIST -0.0771
-1.4361 LIMA MICHAEL -0.4965
-2.1405 LIMA NOVEMBER -0.6112
-2.7425 LIMA ONE -0.1257
-1.5317 LIMA OSCAR -0.5405
-3.3446 LIMA PAGE_DOWN -0.2998
-2.8675 LIMA PAGE_UP -0.3003
-2.8675 LIMA PERIOD -0.5951
-2.5664 LIMA PETER -0.2021
-2.8675 LIMA QUOTATION -0.3740
-2.6456 LIMA REPEAT_COMMAND -0.0979
-2.8675 LIMA RIGHT_ARROW 0.3539
-3.3446 LIMA RIGHT_BRACKET -0.2620
-1.9296 LIMA ROBBIE -0.4339
-1.7764 LIMA SEMICOLON -0.3509
-2.6456 LIMA SHIFT -0.7481
-1.1714 LIMA SIERRA -0.4550
-3.0436 LIMA SLASH -0.2152
-1.3152 LIMA TABULAR -0.1451
-2.2306 LIMA TANGO -0.1599
-3.3446 LIMA THREE -0.2829
-3.0436 LIMA TWIDDLE -0.4685
-2.5664 LIMA TWO 0.0777
-2.3032 LIMA UNDERSCORE -0.3718
-2.8675 LIMA UNIFORM -0.2272
-3.0436 LIMA UP_ARROW 0.3497
-3.3446 LIMA VERTICAL_BAR -0.2967
-3.3446 LIMA VICTOR -0.2757
-3.3446 LIMA VIEW -0.2868
-3.0436 LIMA WHISKEY -0.2415
-1.9296 LIMA YANKEE -0.2999
-3.3446 LIMA ZERO -0.2826
-3.0436 LIMA ZULU -0.2973
-1.0938 LIST <UNK> 0.3549
-0.3949 LIST </s> 2.7807
-1.6253 LIST ALFA -0.6898
-2.3243 LIST ALTERNATE -0.3010
-2.3243 LIST AMPERSAND -0.2829
-1.7222 LIST BIN -0.1761
-1.8472 LIST COMMA -0.3471
-1.4212 LIST DASH -0.9298
-2.3243 LIST DELETE -0.3006
-1.7222 LIST DELTA -0.3246
-2.3243 LIST EAST_ARROW 0.0669
-2.3243 LIST ECHO -0.2583
-2.3243 LIST EDITOR -0.2964
-1.8472 LIST EIGHT -0.2565
-2.3243 LIST END_KEY -0.3008
-1.1482 LIST ENTER_KEY 0.5387
-2.0233 LIST EQUALS -0.2985
-2.3243 LIST ERASE -0.2968
-2.3243 LIST FOUR -0.2961
-2.0233 LIST LIST -0.2948
-2.3243 LIST MICHAEL -0.2799
-1.7222 LIST ONE -0.1101
-2.0233 LIST OSCAR -0.2681
-2.3243 LIST PERCENT -0.2993
-1.8472 LIST PERIOD -0.5758
-2.3243 LIST REGULAR 1.0048
-2.0233 LIST REPEAT_COMMAND -0.0768
-2.0233 LIST STAR -0.1345
-2.3243 LIST TWO -0.2926
-2.3243 LIST UNDERSCORE -0.2612
-2.3243 LIST UNDO_COMMAND 0.5267
-2.3243 LIST VOICE -0.2638
-2.3243 LIST YANKEE -0.2988
-0.3010 LOWER_WINDOW </s> 3.9371
-1.0000 LOWER_WINDOW LOWER_WINDOW 0.0000
-1.0000 LOWER_WINDOW NINE -0.3001
-2.3359 MICHAEL <UNK> 0.5229
-1.1436 MICHAEL </s> 2.6738
-0.8821 MICHAEL ALFA -0.4103
-2.5789 MICHAEL ALTERNATE 0.0454
-1.9769 MICHAEL BRAVO -0.4584
-0.8465 MICHAEL BRAY 0.1172
-2.5789 MICHAEL CHARLIE -0.3015
-3.1810 MICHAEL COMMA -0.2953
-2.0670 MICHAEL CONTROL -0.0996
-3.1810 MICHAEL DASH -0.2902
-1.6128 MICHAEL DELTA -0.1669
-2.8800 MICHAEL DOWN_ARROW 0.4523
-1.3549 MICHAEL ECHO -0.1083
-2.8800 MICHAEL EIGHT -0.2957
-2.1396 MICHAEL END_KEY 0.1011
-1.4908 MICHAEL ENTER_KEY 0.0616
-3.1810 MICHAEL EQUALS -0.2977
-2.4820 MICHAEL FOXTROT -0.4968
-3.1810 MICHAEL FUNCTION_KEY_4 0.5921
-3.1810 MICHAEL GINGER -0.2908
-3.1810 MICHAEL HOME_KEY -0.3007
-1.4997 MICHAEL INDIA -0.3401
-2.4028 MICHAEL KILO -0.3970
-2.4028 MICHAEL LEFT_ARROW 0.2355
-1.9257 MICHAEL LIMA -0.5229
-1.9022 MICHAEL MICHAEL -0.1796
-3.1810 MICHAEL NINE -0.3005
-2.8800 MICHAEL NORTH_ARROW -0.3958
-1.4908 MICHAEL NOVEMBER -0.5946
-3.1810 MICHAEL ONE -0.3000
-1.2516 MICHAEL OSCAR -0.5399
-3.1810 MICHAEL PAGE_DOWN -0.2326
-2.8800 MICHAEL PAGE_UP 0.2536
-2.5789 MICHAEL PERIOD -0.3655
-1.2834 MICHAEL PETER -0.5839
-2.8800 MICHAEL QUEBEC -0.2930
-3.1810 MICHAEL QUOTATION -0.0734
-3.1810 MICHAEL REGULAR -0.2986
-2.8800 MICHAEL RIGHT_ARROW 0.5567
-3.1810 MICHAEL RIGHT_PARENS -0.2883
-3.1810 MICHAEL SEMICOLON 0.0545
-2.4820 MICHAEL SHIFT -0.3171
-2.2267 MICHAEL SIERRA -0.4023
-3.1810 MICHAEL SLASH -0.2694
-3.1810 MICHAEL STAR -0.1821
-1.2365 MICHAEL TABULAR -0.1766
-2.4028 MICHAEL TANGO -0.4318
-2.4028 MICHAEL TWO -0.4447
-1.8588 MICHAEL UNDERSCORE -0.3732
-1.4734 MICHAEL UNIFORM -0.3474
-2.8800 MICHAEL UP_ARROW 0.1635
-1.0806 MICHAEL VICTOR -0.9012
-1.3237 MICHAEL YANKEE -0.5963
-0.9777 MOUSE <UNK> -0.1020
-0.4337 MOUSE </s> 3.8121
-1.2788 MOUSE COMPUTER -0.2817
-1.2788 MOUSE EDITOR -0.2964
-1.2788 MOUSE ONE -0.2872
-1.2788 MOUSE TWO -0.2957
-0.0193 NEW_COMMAND </s> 2.8892
-1.8388 NEW_COMMAND CONTROL -0.2982
-0.0830 NEXT_COMMAND </s> 3.1242
-1.6628 NEXT_COMMAND NEXT_COMMAND 0.4586
-1.0607 NEXT_COMMAND REPEAT_COMMAND -0.2181
-2.1751 NINE <UNK> -0.2778
-0.1437 NINE </s> 1.9050
-2.6522 NINE ALTERNATE -0.1629
-2.9533 NINE BACKSLASH -0.2996
-2.6522 NINE BRAVO -0.4563
-1.6109 NINE BRAY -0.0656
-2.9533 NINE COMMA -0.2510
-1.8741 NINE CONTROL -0.2457
-2.9533 NINE DASH -0.2878
-2.9533 NINE DELETE -0.2927
-2.6522 NINE DELTA -0.2798
-2.4762 NINE DOWN_ARROW -0.2782
-2.6522 NINE ECHO -0.4344
-2.4762 NINE EDITOR -0.2775
-2.3512 NINE EIGHT -0.2018
-1.8741 NINE ENTER_KEY 0.3300
-2.9533 NINE ERASE -0.2997
-2.9533 NINE ET_CETERA -0.2762
-2.4762 NINE FIVE -0.3900
-2.6522 NINE FOUR -0.2925
-2.9533 NINE FOXTROT -0.2569
-2.9533 NINE FUNCTION_KEY_4 0.5921
-2.9533 NINE FUNCTION_KEY_8 -0.2499
-2.9533 NINE GINGER -0.2692
-2.3512 NINE HOME_KEY -0.1891
-2.4762 NINE LEFT_ARROW 0.6312
-2.0502 NINE LEFT_PARENS -0.4441
-2.3512 NINE LIMA -0.1063
-2.9533 NINE LIST -0.0771
-2.9533 NINE MOUSE -0.2775
-2.9533 NINE NINE -0.2903
-2.9533 NINE NOVEMBER -0.2879
-1.8071 NINE ONE -0.1786
-2.9533 NINE PAGE_DOWN 0.4057
-2.9533 NINE PAGE_UP 0.4297
-2.9533 NINE PERCENT -0.0540
-2.9533 NINE PERIOD -0.1929
-2.2543 NINE REPEAT_COMMAND -0.7001
-2.6522 NINE RIGHT_ARROW 0.4668
-2.4762 NINE RIGHT_BRACKET -0.1623
-2.9533 NINE ROBBIE -0.3009
-2.9533 NINE SEMICOLON -0.2659
-2.6522 NINE SEVEN -0.2943
-2.0502 NINE SHIFT -0.6584
-2.3512 NINE SIX -0.4582
-2.6522 NINE TABULAR -0.1700
-2.9533 NINE THREE -0.2998
-1.9533 NINE TWO -0.2009
-2.9533 NINE UNDERSCORE -0.2944
-2.2543 NINE UP_ARROW 0.2252
-1.8741 NINE VERTICAL_BAR -0.6250
-2.9533 NINE VOICE -0.2638
-2.9533 NINE WHISKEY -0.2699
-2.9533 NINE X-RAY -0.2882
-2.6522 NINE YANKEE -0.1469
-1.9990 NINE ZERO -0.4259
-3.1673 NORTH_ARROW <UNK> 0.0615
-0.3241 NORTH_ARROW </s> 1.8714
-2.2131 NORTH_ARROW ALTERNATE 0.0876
-2.3222 NORTH_ARROW BRAY 0.0506
-1.4683 NORTH_ARROW CONTROL -0.4347
-2.4683 NORTH_ARROW DELETE -0.0472
-2.3892 NORTH_ARROW DELTA -0.2534
-2.6902 NORTH_ARROW DOWN_ARROW 0.5857
-2.0881 NORTH_ARROW END_KEY -0.1460
-1.5239 NORTH_ARROW ENTER_KEY 0.7107
-2.2131 NORTH_ARROW ERASE -0.2662
-1.7871 NORTH_ARROW HOME_KEY -0.2817
-1.9632 NORTH_ARROW LEFT_ARROW -0.6858
-0.7676 NORTH_ARROW NORTH_ARROW -0.5736
-3.1673 NORTH_ARROW NUMBER_SIGN -0.1841
-3.1673 NORTH_ARROW ONE -0.1314
-0.7441 NORTH_ARROW REPEAT_COMMAND 0.4447
-2.3222 NORTH_ARROW RIGHT_ARROW -0.4134
-3.1673 NORTH_ARROW RIGHT_BRACKET -0.2583
-2.5653 NORTH_ARROW SAVE_COMMAND 0.8544
-3.1673 NORTH_ARROW SEMICOLON -0.2746
-3.1673 NORTH_ARROW SHIFT -0.2930
-3.1673 NORTH_ARROW SIERRA -0.2325
-2.5653 NORTH_ARROW STAR -0.5801
-2.8663 NORTH_ARROW TABULAR -0.3474
-1.9632 NORTH_ARROW UNDO_COMMAND -0.1156
-3.1673 NORTH_ARROW VICTOR -0.2625
-3.1673 NORTH_ARROW WORK_SPACE_8 0.8062
-3.1673 NORTH_ARROW ZERO -0.2624
-2.5084 NOVEMBER <UNK> -0.7042
-0.9751 NOVEMBER </s> 2.3350
-1.5977 NOVEMBER ALFA -0.1827
-2.6546 NOVEMBER ALTERNATE -0.0154
-2.5754 NOVEMBER APOSTROPHE -0.5261
-2.7515 NOVEMBER BACKSLASH -0.4006
-2.7515 NOVEMBER BRAVO -0.0513
-1.0091 NOVEMBER BRAY 0.3253
-3.3535 NOVEMBER CAPS_LOCK -0.2907
-1.7737 NOVEMBER CHARLIE -0.5115
-3.3535 NOVEMBER COLON -0.2044
-2.7515 NOVEMBER COMMA -0.1930
-1.8095 NOVEMBER CONTROL 0.0940
-2.8764 NOVEMBER DASH -0.3488
-3.3535 NOVEMBER DELETE -0.2998
-1.3161 NOVEMBER DELTA -0.1131
-2.7515 NOVEMBER DOWN_ARROW 0.5865
-1.1604 NOVEMBER ECHO -0.1474
-2.7515 NOVEMBER EIGHT -0.2663
-2.2396 NOVEMBER END_KEY 0.0737
-1.3407 NOVEMBER ENTER_KEY -0.2520
-2.7515 NOVEMBER EQUALS 0.1286
-2.7515 NOVEMBER FIVE -0.2782
-2.7515 NOVEMBER FOUR -0.3625
-2.2396 NOVEMBER FOXTROT -0.3695
-3.3535 NOVEMBER FUNCTION_KEY_4 0.5921
-1.3945 NOVEMBER GINGER -0.4194
-2.5754 NOVEMBER HOME_KEY -0.2722
-2.0525 NOVEMBER INDIA -0.1925
-2.8764 NOVEMBER INSERT -0.2676
-3.0525 NOVEMBER JULIET -0.2915
-2.1231 NOVEMBER KILO -0.3300
-2.3535 NOVEMBER LEFT_ARROW 0.3365
-3.0525 NOVEMBER LEFT_PARENS -0.1393
-2.1774 NOVEMBER LIMA -0.0997
-2.4504 NOVEMBER MICHAEL -0.2555
-2.8764 NOVEMBER NINE 0.2962
-0.8390 NOVEMBER NOVEMBER -1.1848
-3.3535 NOVEMBER NUMBER_SIGN -0.2993
-2.2074 NOVEMBER ONE -0.2410
-3.3535 NOVEMBER OPEN_COMMAND 0.1249
-1.4843 NOVEMBER OSCAR -0.4146
-2.2074 NOVEMBER PAGE_DOWN 0.5438
-3.0525 NOVEMBER PAGE_UP 0.4432
-2.5754 NOVEMBER PERIOD -0.0375
-2.4504 NOVEMBER PETER -0.1448
-2.8764 NOVEMBER QUEBEC -0.4446
-2.1774 NOVEMBER QUOTATION -0.1049
-3.3535 NOVEMBER REPEAT_COMMAND -0.2421
-2.3535 NOVEMBER RIGHT_ARROW 0.3884
-3.3535 NOVEMBER RIGHT_BRACKET -0.2766
-3.3535 NOVEMBER RIGHT_PARENS -0.2985
-2.7515 NOVEMBER ROBBIE -0.3350
-3.0525 NOVEMBER SAVE_COMMAND 1.0763
-2.7515 NOVEMBER SEMICOLON 0.0643
-1.6132 NOVEMBER SHIFT -0.6898
-1.5275 NOVEMBER SIERRA -0.1398
-3.0525 NOVEMBER SIX -0.2775
-2.3535 NOVEMBER SLASH -0.1137
-3.3535 NOVEMBER STAR -0.2450
-1.6053 NOVEMBER TABULAR 0.0211
-1.1833 NOVEMBER TANGO -0.0644
-3.3535 NOVEMBER THREE -0.2959
-3.3535 NOVEMBER TWO -0.2998
-3.3535 NOVEMBER UNDERSCORE -0.2424
-1.9064 NOVEMBER UNIFORM -0.3801
-2.3993 NOVEMBER UP_ARROW 0.6741
-3.0525 NOVEMBER VICTOR -0.2908
-2.6546 NOVEMBER WHISKEY -0.2094
-1.8095 NOVEMBER X-RAY -0.3780
-1.7003 NOVEMBER YANKEE -0.4404
-3.0525 NOVEMBER ZERO -0.2911
-2.3535 NOVEMBER ZULU -0.4902
-0.7447 NUMBER_SIGN </s> 3.0525
-2.3979 NUMBER_SIGN ALTERNATE -0.2887
-2.0969 NUMBER_SIGN BRAVO -0.2419
-0.6271 NUMBER_SIGN BRAY -0.0242
-1.4949 NUMBER_SIGN CONTROL -0.2646
-2.3979 NUMBER_SIGN DELETE -0.2842
-2.0969 NUMBER_SIGN DOLLAR_SIGN -0.4744
-0.7852 NUMBER_SIGN DOWN_ARROW -0.0350
-2.3979 NUMBER_SIGN END_KEY -0.2901
-1.4437 NUMBER_SIGN ENTER_KEY 0.1745
-2.3979 NUMBER_SIGN FUNCTION_KEY_4 0.5921
-2.3979 NUMBER_SIGN INDIA -0.3008
-2.0969 NUMBER_SIGN LIMA -0.3361
-2.3979 NUMBER_SIGN NORTH_ARROW -0.2984
-2.3979 NUMBER_SIGN NOVEMBER -0.2866
-1.1427 NUMBER_SIGN NUMBER_SIGN -0.1335
-2.0969 NUMBER_SIGN OSCAR -0.2651
-2.3979 NUMBER_SIGN PAGE_DOWN 0.4057
-2.3979 NUMBER_SIGN PAGE_UP -0.2781
-1.6198 NUMBER_SIGN REPEAT_COMMAND -0.4811
-2.0969 NUMBER_SIGN RIGHT_ARROW 0.2740
-2.3979 NUMBER_SIGN SAVE_COMMAND 1.2524
-2.0969 NUMBER_SIGN SLASH -0.2948
-2.3979 NUMBER_SIGN STAR -0.2450
-2.3979 NUMBER_SIGN TABULAR -0.2901
-2.3979 NUMBER_SIGN TANGO -0.2843
-2.3979 NUMBER_SIGN UNDERSCORE -0.2785
-1.4949 NUMBER_SIGN UP_ARROW 0.5233
-2.3979 NUMBER_SIGN WHISKEY -0.2950
-1.3678 ONE <UNK> 0.2980
-0.4904 ONE </s> 2.2681
-2.6350 ONE ALFA -0.2115
-2.9360 ONE BACK_COMMAND 1.1944
-2.9360 ONE BRAVO -0.2828
-1.2733 ONE BRAY 0.0355
-2.9360 ONE CHARLIE -0.2860
-2.6350 ONE COMMA -0.2974
-1.8568 ONE CONTROL -0.2403
-2.0909 ONE DASH -0.4202
-2.4589 ONE DELETE -0.1773
-2.9360 ONE DELTA -0.2947
-2.4589 ONE DOLLAR_SIGN -0.2873
-2.6350 ONE DOWN_ARROW 0.4489
-1.4736 ONE ECHO -0.7016
-2.9360 ONE EDITOR -0.1746
-1.5936 ONE EIGHT -0.0922
-2.0909 ONE END_KEY 0.1041
-1.3562 ONE ENTER_KEY 0.0451
-1.8568 ONE EXCLAMATION -0.1370
-2.1579 ONE FIVE 0.2047
-1.5936 ONE FOUR 0.0568
-2.9360 ONE FOXTROT -0.2996
-2.9360 ONE FUNCTION_KEY_4 0.5921
-2.6350 ONE GINGER -0.2978
-2.9360 ONE GREATER_THAN_SIGN -0.2214
-2.9360 ONE HOME_KEY -0.2994
-2.9360 ONE JULIET -0.2979
-2.9360 ONE KEYBOARD -0.3002
-2.1579 ONE LEFT_ARROW 0.4924
-2.3340 ONE LIMA -0.1196
-2.2370 ONE LIST -0.1809
-2.6350 ONE MICHAEL -0.2772
-2.0329 ONE NINE 0.3622
-1.5046 ONE ONE -0.2447
-2.6350 ONE OSCAR -0.1869
-2.6350 ONE PAGE_DOWN 0.9948
-2.6350 ONE PAGE_UP -0.2614
-2.6350 ONE PERCENT -0.0478
-2.1579 ONE PERIOD -0.3652
-2.9360 ONE PETER -0.2553
-2.2370 ONE PLUS -0.3392
-2.9360 ONE QUEBEC -0.3005
-2.9360 ONE QUOTATION -0.3000
-2.9360 ONE REGULAR 1.0048
-2.3340 ONE RIGHT_ARROW 0.4997
-2.6350 ONE RIGHT_BRACE -0.2650
-2.0909 ONE RIGHT_BRACKET -0.0859
-2.4589 ONE RIGHT_PARENS -0.1380
-2.2370 ONE SEMICOLON -0.0354
-1.7599 ONE SEVEN 0.1952
-2.1579 ONE SHIFT -0.3167
-1.8568 ONE SIX 0.0705
-2.9360 ONE SLASH -0.2256
-2.4589 ONE STAR -0.3333
-1.8568 ONE TABULAR -0.2315
-2.3340 ONE TANGO -0.3277
-1.7899 ONE THREE 0.0613
-2.9360 ONE TWIDDLE -0.2656
-1.2200 ONE TWO -0.0010
-2.6350 ONE UNDERSCORE -0.2588
-2.0909 ONE UP_ARROW 0.3006
-2.1579 ONE VERTICAL_BAR -0.8041
-2.9360 ONE VOICE -0.1697
-2.6350 ONE WORK_SPACE_4 1.4314
-2.9360 ONE WORK_SPACE_9 -0.2218
-1.7056 ONE ZERO -0.1813
-2.9360 ONE ZULU -0.3003
-0.2041 OPEN_COMMAND </s> 3.9371
-0.9031 OPEN_COMMAND EDITOR -0.2964
-3.1069 OSCAR <UNK> -0.3004
-1.3826 OSCAR </s> 2.6858
-2.2318 OSCAR ALFA -0.5169
-3.4079 OSCAR ALTERNATE 0.0132
-3.4079 OSCAR APOSTROPHE -0.1936
-3.4079 OSCAR AT_SIGN -0.2936
-2.1069 OSCAR BRAVO -0.2101
-1.2406 OSCAR BRAY 0.2182
-1.6919 OSCAR CHARLIE -0.4871
-2.9308 OSCAR COLON -0.2661
-3.4079 OSCAR COMMA 0.2050
-0.9351 OSCAR CONTROL -0.6540
-3.1069 OSCAR DASH -0.2956
-1.4036 OSCAR DELTA -0.3627
-1.1878 OSCAR DOWN_ARROW -0.2288
-2.2940 OSCAR ECHO -0.4344
-3.1069 OSCAR EIGHT -0.1493
-2.7089 OSCAR END_KEY 0.2069
-1.8764 OSCAR ENTER_KEY -0.3696
-3.4079 OSCAR EQUALS 0.0837
-3.4079 OSCAR EXCLAMATION -0.2922
